<?xml version="1.0"?>
<opencv_storage>
<opencv_ml_svm>
  <format>3</format>
  <svmType>C_SVC</svmType>
  <kernel>
    <type>LINEAR</type></kernel>
  <C>1.</C>
  <term_criteria><iterations>100</iterations></term_criteria>
  <var_count>136</var_count>
  <class_count>3</class_count>
  <class_labels type_id="opencv-matrix">
    <rows>3</rows>
    <cols>1</cols>
    <dt>i</dt>
    <data>
      170 250 300</data></class_labels>
  <sv_total>3</sv_total>
  <support_vectors>
    <_>
      5.47305797e-04 9.83742182e-04 4.43488039e-04 8.74311896e-04
      8.91695789e-04 6.79935794e-04 1.00587134e-03 6.37493387e-04
      5.25349402e-04 8.66589602e-04 -2.57458596e-04 7.51128886e-04
      -6.27984060e-04 3.56448814e-04 -3.88176617e-04 -4.04434191e-04
      5.72381774e-04 -9.54371470e-04 1.43604190e-03 -8.72690696e-04
      2.05787341e-03 6.77328615e-04 1.09555107e-03 1.51887245e-03
      -1.59726289e-04 1.47198397e-03 -1.83654041e-03 1.32968102e-03
      -2.24220380e-03 1.44434103e-03 -2.16665445e-03 1.67843956e-03
      -1.28775276e-03 1.59533531e-03 -8.53194681e-04 6.72448310e-04
      -1.35299203e-03 -9.14648350e-04 -7.13368761e-04 -1.15749903e-03
      -2.08781246e-04 -1.09208422e-03 5.48395503e-04 -1.01288327e-03
      -1.55098643e-03 -1.37161161e-03 -1.23955158e-03 -2.00068182e-03
      -2.90640019e-04 -2.34908634e-03 5.21817245e-04 -1.60132581e-03
      3.16675694e-04 -8.62753310e-04 -7.43388446e-05 -9.05306661e-04
      5.88462353e-05 -1.17423641e-03 1.77023147e-04 -1.25502213e-03
      1.56769063e-04 -1.80002558e-03 9.85265942e-04 1.40420976e-03
      4.07931948e-04 7.84207310e-04 8.28395496e-05 -1.31501904e-04
      -7.89605838e-04 4.27110353e-04 -1.68328546e-03 1.14091346e-03
      -7.08151609e-04 -9.68144974e-04 -4.59017669e-04 -2.10286560e-03
      -1.61967575e-04 -2.48629460e-03 -4.97299887e-04 -1.21746177e-03
      -3.63940082e-04 -7.23936770e-04 -6.76566153e-04 -5.55201143e-04
      -9.32017138e-05 -1.05769909e-03 3.25643632e-04 -2.03140709e-03
      7.12900481e-04 -1.84792047e-03 1.06865164e-05 -8.29515804e-04
      5.00413007e-04 -4.31881665e-04 8.69987562e-05 -7.59099552e-04
      8.77091289e-03 7.75432261e-03 5.46632055e-03 4.47562290e-03
      1.34657975e-03 2.18548626e-03 -4.16401745e-04 2.47957720e-03
      -2.27885204e-03 2.13032588e-03 -5.32590784e-03 4.07990348e-03
      -7.30465166e-03 6.35886379e-03 -5.32500120e-03 -2.18524761e-03
      -2.31656036e-03 -5.99916186e-03 3.49210677e-05 -6.08160067e-03
      2.05653929e-03 -5.37325907e-03 6.08436903e-03 -1.29492080e-03
      9.22972523e-03 6.18211133e-03 1.46360882e-03 5.41188754e-03
      -2.32311810e-04 5.23272902e-03 -2.18509603e-03 5.27351862e-03
      -7.78168114e-03 4.70632222e-03 -2.37197476e-03 -6.65698014e-03
      -2.40569498e-04 -6.95558265e-03 1.94558210e-03 -6.37874845e-03</_>
    <_>
      2.33268319e-03 7.46787200e-03 3.69154452e-03 2.98309582e-03
      3.91468359e-03 -1.18819473e-03 5.28297911e-04 -1.39093760e-03
      -3.28915473e-03 3.72141949e-04 -4.83192550e-03 -7.11335335e-04
      -4.92642308e-03 -4.83024720e-04 -1.21495698e-03 2.04105931e-03
      2.35972367e-03 1.93177792e-03 5.23178698e-03 -7.78270012e-04
      7.06278719e-03 -3.45935673e-03 7.70581281e-03 -1.78368425e-03
      5.06168744e-03 -5.91665681e-04 -3.19430634e-04 -1.80530609e-04
      -4.60671820e-03 5.38292341e-04 -5.05779358e-03 3.40275909e-03
      -2.64713587e-03 5.15779993e-03 -2.53343023e-03 1.00011227e-03
      -9.72427719e-04 -1.16870867e-03 1.22507301e-03 -1.16803613e-03
      3.53259454e-03 -2.32032943e-03 4.42203367e-03 -9.46664251e-04
      -4.15649079e-03 7.57093483e-04 -4.82663326e-03 -1.80889922e-03
      -2.57314392e-03 -1.51676580e-03 -4.64875455e-04 1.40639153e-04
      -1.12452474e-03 3.85745754e-03 2.01810291e-03 -3.78704164e-03
      1.70522416e-03 -9.33186058e-03 1.03906263e-03 -1.38046630e-02
      4.14679904e-04 -1.82118919e-02 4.68080211e-03 -6.00860827e-03
      5.36813517e-04 -7.65039446e-03 -2.21849186e-03 -8.69993959e-03
      -5.99781750e-03 -6.61528716e-03 -8.79641343e-03 -2.47882842e-03
      -6.93279901e-04 -3.14410846e-03 -3.14286008e-05 -2.92692054e-03
      -1.46084686e-03 -3.30010056e-03 -3.29497969e-03 -4.55116946e-03
      -2.45845830e-03 -4.35776729e-03 -3.50709277e-04 -3.96749657e-03
      5.92992688e-03 -1.28559920e-03 5.61135914e-03 1.45316334e-03
      3.14748054e-03 2.02007475e-03 1.35893491e-03 1.14321709e-03
      2.73531629e-03 3.25293513e-04 4.92525240e-03 -4.20076540e-04
      3.04215285e-03 -3.21560190e-03 4.96536773e-03 4.31267358e-03
      3.89922084e-03 3.13576474e-03 -3.94169765e-04 5.41192526e-03
      -6.07548747e-03 5.11613209e-03 -5.71314991e-03 8.09475034e-03
      -2.96754646e-03 3.14176199e-03 -4.66000708e-03 6.51398487e-03
      -5.17566316e-03 4.78419987e-03 -8.15057661e-04 2.90370360e-03
      3.21546290e-03 1.49573688e-03 2.82603945e-03 2.14538304e-03
      2.58572702e-03 -4.69711667e-04 3.04307370e-03 7.28339562e-03
      -1.16420782e-03 8.53012968e-03 -5.49085252e-03 8.97022802e-03
      -4.35940875e-03 4.44656610e-03 -5.05801616e-03 2.12493772e-03
      -1.00723084e-03 1.59351295e-03 3.69157433e-03 1.27893197e-03</_>
    <_>
      2.00156076e-03 3.36652342e-03 1.83740899e-03 1.58419789e-04
      5.28548146e-04 -1.74734998e-03 -1.22804777e-03 -2.52047693e-03
      -3.01169744e-03 -1.31461257e-03 -2.77117873e-03 -1.05403550e-03
      -1.53112272e-03 1.35430950e-04 5.92306082e-04 2.45086895e-03
      1.33774674e-03 3.20068677e-03 1.41044101e-03 1.67303055e-03
      2.47952208e-04 -1.91344391e-03 6.08386181e-04 -3.13922903e-03
      1.97574278e-04 -2.37658946e-03 -5.15389838e-04 -2.31265021e-03
      -1.07862975e-03 -1.19929225e-03 -5.97334409e-04 1.87068945e-03
      -1.10845815e-03 3.96593055e-03 1.85766560e-03 -1.72879198e-03
      2.79448717e-03 9.46404034e-05 2.27917521e-03 -4.45435668e-04
      2.08372367e-03 -1.33505219e-03 1.76670786e-03 -4.21869598e-04
      2.04894994e-03 -9.00033338e-05 9.08447779e-04 2.50805082e-04
      -5.65455062e-04 1.87629496e-03 -1.76553812e-03 1.78948161e-03
      -2.63592857e-03 1.10342912e-03 2.00827303e-03 -1.26977044e-03
      1.37310720e-03 -3.82109196e-03 5.73601865e-04 -6.01853617e-03
      -2.24876727e-04 -7.76675716e-03 1.62845675e-03 -4.83344030e-03
      4.01597266e-04 -4.98382840e-03 -1.36063516e-03 -4.72423807e-03
      -2.20887014e-03 -3.67344194e-03 -2.89917365e-03 -2.57917750e-03
      2.28697388e-03 -3.60544538e-04 2.44760467e-03 1.49036269e-03
      1.40974252e-03 1.64547574e-03 7.05129816e-04 -1.24092345e-04
      1.43835135e-03 -6.45156251e-04 1.83480512e-03 -7.32409593e-04
      8.85205634e-04 1.04677072e-03 1.31753995e-03 3.02776927e-03
      2.59351218e-04 3.48452595e-03 -7.44854042e-04 2.45563895e-03
      -3.63284518e-04 1.24418270e-03 8.38076696e-04 8.96740879e-04
      -7.96661898e-03 -9.69910994e-03 -4.12685750e-03 -3.05679557e-03
      5.98324732e-05 -8.17528169e-04 1.06283936e-04 -1.72506552e-04
      2.91482487e-04 9.47592373e-04 3.91120510e-03 7.30363128e-04
      7.51669751e-03 -5.04097762e-03 3.91999865e-03 6.92079403e-03
      2.09473423e-04 9.76571534e-03 -9.13859840e-05 8.78774840e-03
      -8.51764926e-04 7.59439357e-03 -4.89531830e-03 2.52959086e-03
      -9.28716827e-03 -7.11335707e-03 -1.78246755e-05 -1.64288492e-03
      2.85380265e-05 -5.00264578e-04 3.34499840e-04 -3.25385554e-05
      7.51093635e-03 -2.11075204e-03 3.75801057e-04 9.04874038e-03
      2.80791923e-04 8.32207780e-03 -1.58654177e-04 6.98267948e-03</_></support_vectors>
  <uncompressed_sv_total>52</uncompressed_sv_total>
  <uncompressed_support_vectors>
    <_>
      4.83870983e+00 1.24838715e+02 7.74193621e+00 1.57741943e+02
      1.35483875e+01 1.91612915e+02 2.22580643e+01 2.26451614e+02
      3.77419357e+01 2.61290344e+02 6.38709679e+01 2.86451630e+02
      9.67741928e+01 3.07741943e+02 1.33548386e+02 3.27096771e+02
      1.74193558e+02 3.30967743e+02 2.12903229e+02 3.26129028e+02
      2.42903229e+02 3.09677429e+02 2.66129028e+02 2.84516144e+02
      2.82580658e+02 2.51612915e+02 2.92258087e+02 2.15806458e+02
      2.98064514e+02 1.79032257e+02 2.97096771e+02 1.42258072e+02
      2.93225830e+02 1.06451614e+02 3.67741928e+01 7.16129074e+01
      5.41935501e+01 5.03225822e+01 8.22580643e+01 4.45161285e+01
      1.11290329e+02 4.74193573e+01 1.36451614e+02 5.70967751e+01
      1.72258072e+02 5.32258072e+01 1.98387100e+02 4.06451607e+01
      2.27419357e+02 3.67741928e+01 2.54516144e+02 4.54838715e+01 270.
      6.77419357e+01 1.59677429e+02 8.70967789e+01 1.62580643e+02
      1.06451614e+02 1.65483871e+02 1.24838715e+02 1.68387100e+02
      1.45161301e+02 1.35483871e+02 180. 1.50967743e+02 1.81935486e+02
      1.66451614e+02 1.82903229e+02 180. 1.80967743e+02 1.93548386e+02
      1.79032257e+02 6.77419357e+01 9.87096786e+01 8.22580643e+01
      8.61290359e+01 1.01612907e+02 8.41935501e+01 1.18064522e+02
      9.77419357e+01 1.02580650e+02 1.00645164e+02 8.32258072e+01
      1.01612907e+02 1.99354843e+02 9.58064575e+01 2.15806458e+02
      8.22580643e+01 2.35161301e+02 8.22580643e+01 2.47741943e+02
      9.38709717e+01 2.36129044e+02 9.77419357e+01 2.17741943e+02
      9.77419357e+01 1.20967743e+02 2.38064529e+02 1.38387100e+02
      2.19677429e+02 1.57741943e+02 2.07096786e+02 1.70322586e+02
      2.11935486e+02 1.83870972e+02 2.06129044e+02 2.04193558e+02
      2.17741943e+02 2.21612915e+02 2.37096786e+02 2.06129044e+02
      2.45806458e+02 1.88709686e+02 2.51612915e+02 1.74193558e+02
      2.52580658e+02 1.59677429e+02 2.51612915e+02 1.40322586e+02
      2.47741943e+02 1.28709686e+02 2.37096786e+02 1.57741943e+02
      2.29354843e+02 1.70322586e+02 2.29354843e+02 1.84838715e+02
      2.28387100e+02 2.12903229e+02 2.35161301e+02 1.84838715e+02
      2.29354843e+02 1.71290329e+02 2.30322586e+02 1.57741943e+02
      2.29354843e+02</_>
    <_>
      1.94174767e+01 1.16504860e+02 2.52427197e+01 1.51456314e+02
      3.30097084e+01 1.88349518e+02 4.27184486e+01 2.23300980e+02
      6.01941757e+01 2.56310699e+02 8.64077682e+01 2.81553406e+02
      1.17475731e+02 3.02912628e+02 1.55339813e+02 3.17475739e+02
      1.98058258e+02 3.18446625e+02 2.32038849e+02 3.09708740e+02
      2.51456314e+02 2.89320404e+02 2.59223297e+02 2.58252441e+02
      2.62135925e+02 2.22330109e+02 2.62135925e+02 1.88349518e+02
      2.64077667e+02 1.56310684e+02 2.64077667e+02 1.25242722e+02
      2.61165070e+02 9.41747589e+01 5.24271851e+01 6.21359253e+01
      7.08737869e+01 4.17475739e+01 9.90291290e+01 3.49514580e+01
      1.27184471e+02 3.59223328e+01 1.54368942e+02 4.56310692e+01
      1.89320389e+02 4.17475739e+01 2.09708740e+02 3.00970879e+01
      2.32038849e+02 2.42718449e+01 2.54368942e+02 2.81553402e+01
      2.65048553e+02 4.56310692e+01 1.77669907e+02 7.37864075e+01
      1.82524277e+02 9.41747589e+01 1.87378647e+02 1.13592239e+02
      1.93203888e+02 1.33980591e+02 1.52427185e+02 1.66990295e+02
      1.70873795e+02 1.68932037e+02 1.88349518e+02 1.70873795e+02
      2.01941757e+02 1.66990295e+02 2.14563110e+02 1.63106796e+02
      8.05825272e+01 9.02912674e+01 9.70873795e+01 7.96116562e+01
      1.14563110e+02 7.66990280e+01 1.32038834e+02 8.64077682e+01
      1.17475731e+02 9.02912674e+01 9.90291290e+01 9.32038879e+01
      2.03883499e+02 8.34951477e+01 2.22330109e+02 7.18446655e+01
      2.38834961e+02 7.08737869e+01 2.51456314e+02 7.96116562e+01
      2.40776703e+02 8.34951477e+01 2.23300980e+02 8.44660187e+01
      1.33009720e+02 2.29126221e+02 1.53398056e+02 2.08737869e+02
      1.73786407e+02 1.98058258e+02 1.88349518e+02 2.01941757e+02
      2.03883499e+02 1.97087387e+02 2.23300980e+02 2.07766998e+02
      2.36893204e+02 2.25242722e+02 2.24271851e+02 2.36893204e+02
      2.07766998e+02 2.42718460e+02 1.92233017e+02 2.44660202e+02
      1.75728165e+02 2.43689331e+02 1.55339813e+02 2.38834961e+02
      1.42718445e+02 2.28155350e+02 1.73786407e+02 2.20388351e+02
      1.89320389e+02 2.20388351e+02 2.03883499e+02 2.19417480e+02
      2.28155350e+02 2.24271851e+02 2.04854370e+02 2.19417480e+02
      1.90291275e+02 2.21359222e+02 1.75728165e+02 2.20388351e+02</_>
    <_>
      2.66129036e+01 1.07258064e+02 2.90322571e+01 1.33870972e+02
      3.38709679e+01 1.60483871e+02 3.95161285e+01 1.87903229e+02
      5.16129036e+01 2.16935486e+02 7.25806427e+01 2.40322586e+02
      9.91935501e+01 2.59677429e+02 1.32258057e+02 275. 1.67741928e+02
      2.78225800e+02 200. 2.72580658e+02 2.23387100e+02 2.57258057e+02
      2.42741928e+02 2.37903229e+02 2.53225800e+02 2.11290314e+02
      2.54838715e+02 1.80645157e+02 2.56451599e+02 1.51612900e+02
      2.58064514e+02 1.22580643e+02 2.58064514e+02 9.43548355e+01
      5.08064499e+01 6.53225784e+01 6.69354858e+01 4.83870964e+01
      9.11290283e+01 4.27419357e+01 1.15322578e+02 4.43548393e+01
      1.38709671e+02 5.32258072e+01 1.66935486e+02 50. 1.88709671e+02
      3.79032249e+01 2.13709671e+02 3.22580643e+01 2.37096771e+02
      3.95161285e+01 2.51612900e+02 5.88709679e+01 1.54838715e+02 75.
      1.57258057e+02 9.27419357e+01 1.59677414e+02 1.09677422e+02
      1.62096771e+02 1.28225800e+02 1.33870972e+02 1.55645157e+02
      1.46774185e+02 1.57258057e+02 1.60483871e+02 1.58064514e+02
      1.72580643e+02 1.56451614e+02 1.84677414e+02 1.54032257e+02
      7.58064499e+01 8.95161285e+01 8.87096786e+01 8.14516144e+01
      1.04032257e+02 7.90322571e+01 1.17741936e+02 8.62903214e+01
      1.04838707e+02 8.95161285e+01 8.95161285e+01 9.11290283e+01
      1.88709671e+02 8.30645142e+01 2.04032257e+02 75. 2.20161285e+02
      75. 2.31451614e+02 8.22580643e+01 2.20161285e+02 8.54838715e+01
      2.04838715e+02 8.54838715e+01 1.16129028e+02 2.04838715e+02
      1.32258057e+02 1.89516129e+02 1.48387100e+02 1.79838715e+02
      1.60483871e+02 1.83870972e+02 1.72580643e+02 1.79838715e+02
      1.89516129e+02 1.88709671e+02 2.05645157e+02 2.02419357e+02
      1.90322586e+02 2.12096771e+02 175. 2.15322586e+02 1.61290314e+02
      2.16129028e+02 1.48387100e+02 2.15322586e+02 1.32258057e+02
      2.12903229e+02 1.22580643e+02 2.03225800e+02 1.48387100e+02
      1.97580643e+02 1.60483871e+02 1.98387100e+02 1.73387100e+02
      1.97580643e+02 1.99193542e+02 2.01612900e+02 1.73387100e+02
      1.97580643e+02 1.60483871e+02 1.98387100e+02 1.48387100e+02
      1.97580643e+02</_>
    <_>
      -8.70967770e+00 1.08387100e+02 -5.80645180e+00 1.44193558e+02 0.
      180. 7.74193621e+00 2.16774200e+02 2.41935482e+01 2.51612915e+02
      4.93548393e+01 2.79677429e+02 8.03225861e+01 3.01935486e+02
      1.16129036e+02 3.19354858e+02 1.54838715e+02 3.22258087e+02
      1.90645172e+02 3.15483887e+02 2.14838715e+02 2.94193542e+02
      2.36129044e+02 2.69032257e+02 2.50645172e+02 2.39032272e+02
      2.58387115e+02 2.05161301e+02 2.63225800e+02 1.71290329e+02
      2.64193542e+02 1.37419357e+02 2.63225800e+02 1.05483871e+02
      2.80645161e+01 6.48387146e+01 4.74193573e+01 4.64516144e+01
      7.35483856e+01 4.16129036e+01 9.96774216e+01 4.54838715e+01
      1.24838715e+02 5.51612930e+01 1.66451614e+02 5.51612930e+01
      1.88709686e+02 4.54838715e+01 2.13870972e+02 4.06451607e+01
      2.37096786e+02 4.93548393e+01 2.48709686e+02 7.16129074e+01
      1.48064514e+02 8.80645218e+01 150. 1.07419357e+02 1.52903229e+02
      1.26774200e+02 1.54838715e+02 1.47096771e+02 1.21935486e+02
      1.78064514e+02 1.36451614e+02 180. 1.51935486e+02 1.82903229e+02
      1.65483871e+02 1.80967743e+02 1.78064514e+02 1.78064514e+02
      5.70967751e+01 9.48387146e+01 7.25806503e+01 8.51612930e+01 90.
      8.41935501e+01 1.05483871e+02 9.58064575e+01 90. 9.96774216e+01
      7.16129074e+01 9.96774216e+01 1.83870972e+02 9.67741928e+01
      1.99354843e+02 8.70967789e+01 2.15806458e+02 8.70967789e+01
      2.27419357e+02 9.58064575e+01 2.16774200e+02 1.01612907e+02
      2.00322586e+02 1.00645164e+02 1.00645164e+02 2.35161301e+02 120.
      2.18709686e+02 1.38387100e+02 2.08064529e+02 1.51935486e+02
      2.11935486e+02 1.64516129e+02 2.08064529e+02 1.81935486e+02
      2.16774200e+02 1.97419357e+02 2.32258072e+02 1.82903229e+02
      2.42903229e+02 1.68387100e+02 2.48709686e+02 1.53870972e+02
      2.49677429e+02 1.39354843e+02 2.48709686e+02 120. 2.44838715e+02
      1.09354843e+02 2.33225815e+02 1.38387100e+02 2.26451614e+02
      1.52903229e+02 2.27419357e+02 1.65483871e+02 2.26451614e+02
      1.88709686e+02 2.31290329e+02 1.66451614e+02 2.28387100e+02
      1.52903229e+02 2.29354843e+02 1.39354843e+02 2.28387100e+02</_>
    <_>
      -1.06451616e+01 1.01612907e+02 -8.70967770e+00 1.38387100e+02
      -5.80645180e+00 1.76129044e+02 9.67742026e-01 2.12903229e+02
      1.83870964e+01 2.47741943e+02 4.45161285e+01 2.76774200e+02
      7.74193573e+01 300. 1.12258064e+02 3.18387115e+02 1.50967743e+02
      3.22258087e+02 1.85806458e+02 3.16451630e+02 2.08064529e+02
      2.95161285e+02 2.24516129e+02 2.69032257e+02 2.37096786e+02
      2.38064529e+02 2.44838715e+02 2.05161301e+02 2.51612915e+02
      1.71290329e+02 2.52580658e+02 1.38387100e+02 2.50645172e+02
      1.06451614e+02 3.96774216e+01 5.41935501e+01 6.09677429e+01
      4.25806465e+01 8.61290359e+01 4.35483894e+01 1.09354843e+02
      4.83870964e+01 1.31612900e+02 5.70967751e+01 1.73225815e+02
      5.90322609e+01 1.92580658e+02 5.12903252e+01 2.13870972e+02
      4.83870964e+01 2.33225815e+02 5.32258072e+01 2.41935486e+02
      6.96774216e+01 1.52903229e+02 9.19354858e+01 1.54838715e+02
      1.12258064e+02 1.57741943e+02 1.31612900e+02 1.60645172e+02
      1.51935486e+02 1.26774200e+02 180. 1.40322586e+02 1.83870972e+02
      1.54838715e+02 1.86774200e+02 1.67419357e+02 1.84838715e+02
      1.79032257e+02 1.81935486e+02 6.19354858e+01 9.29032288e+01
      7.74193573e+01 8.51612930e+01 9.48387146e+01 8.51612930e+01
      1.09354843e+02 9.58064575e+01 9.38709717e+01 9.96774216e+01
      7.64516144e+01 9.96774216e+01 1.81935486e+02 9.87096786e+01
      1.97419357e+02 90. 2.13870972e+02 90. 2.24516129e+02
      9.96774216e+01 2.13870972e+02 1.04516129e+02 1.98387100e+02
      1.03548393e+02 1.05483871e+02 2.34193558e+02 1.24838715e+02
      2.19677429e+02 1.44193558e+02 210. 1.56774200e+02 2.14838715e+02
      1.67419357e+02 2.10967743e+02 1.82903229e+02 2.20645172e+02
      1.95483871e+02 2.37096786e+02 1.82903229e+02 2.46774200e+02
      1.69354843e+02 2.50645172e+02 1.56774200e+02 2.51612915e+02
      1.43225815e+02 2.49677429e+02 1.23870972e+02 2.45806458e+02
      1.14193550e+02 2.33225815e+02 1.44193558e+02 2.29354843e+02
      1.55806458e+02 2.30322586e+02 1.67419357e+02 2.30322586e+02
      1.87741943e+02 2.35161301e+02 1.67419357e+02 2.30322586e+02
      1.56774200e+02 2.30322586e+02 1.43225815e+02 2.30322586e+02</_>
    <_>
      2.90322590e+00 1.04516129e+02 3.87096810e+00 1.41290329e+02
      5.80645180e+00 1.78064514e+02 1.25806456e+01 2.13870972e+02
      2.90322590e+01 2.49677429e+02 5.41935501e+01 2.79677429e+02
      8.61290359e+01 3.04838715e+02 1.22903229e+02 3.24193573e+02
      1.63548386e+02 3.29032257e+02 1.98387100e+02 3.22258087e+02
      2.21612915e+02 3.00967743e+02 240. 2.74838715e+02 2.52580658e+02
      2.43870972e+02 2.59354858e+02 2.11935486e+02 2.65161285e+02 180.
      2.67096771e+02 1.49032257e+02 2.65161285e+02 120. 5.22580643e+01
      6.67741928e+01 7.54838715e+01 5.03225822e+01 1.04516129e+02
      4.93548393e+01 1.31612900e+02 5.70967751e+01 1.56774200e+02
      6.96774216e+01 1.88709686e+02 7.35483856e+01 2.09032257e+02
      6.29032288e+01 2.33225815e+02 5.80645180e+01 2.54516144e+02
      6.58064499e+01 2.62258087e+02 8.61290359e+01 1.72258072e+02
      1.00645164e+02 1.75161301e+02 1.20967743e+02 1.78064514e+02
      1.39354843e+02 1.81935486e+02 1.59677429e+02 1.42258072e+02
      1.86774200e+02 1.57741943e+02 1.90645172e+02 1.73225815e+02
      1.94516129e+02 1.86774200e+02 1.92580658e+02 1.99354843e+02
      1.88709686e+02 8.03225861e+01 1.01612907e+02 9.67741928e+01
      9.58064575e+01 1.14193550e+02 9.67741928e+01 1.27741936e+02
      1.05483871e+02 1.13225807e+02 1.07419357e+02 9.58064575e+01
      1.07419357e+02 1.99354843e+02 1.10322586e+02 2.15806458e+02
      1.04516129e+02 2.31290329e+02 1.06451614e+02 2.40967743e+02
      1.15161293e+02 2.31290329e+02 1.17096779e+02 2.15806458e+02
      1.15161293e+02 1.19032265e+02 2.41935486e+02 1.43225815e+02
      2.26451614e+02 1.63548386e+02 2.17741943e+02 1.74193558e+02
      2.23548401e+02 1.85806458e+02 2.19677429e+02 2.00322586e+02
      2.29354843e+02 210. 2.44838715e+02 1.98387100e+02 2.54516144e+02
      1.85806458e+02 2.58387115e+02 1.73225815e+02 2.59354858e+02
      1.60645172e+02 2.58387115e+02 1.40322586e+02 2.53548401e+02
      1.28709686e+02 2.40967743e+02 1.62580643e+02 2.37096786e+02
      1.73225815e+02 2.37096786e+02 1.84838715e+02 2.37096786e+02
      2.01290329e+02 2.42903229e+02 1.85806458e+02 2.38064529e+02
      1.73225815e+02 2.39032272e+02 1.61612915e+02 2.38064529e+02</_>
    <_>
      2.91262102e+00 7.28155365e+01 3.88349509e+00 1.09708740e+02
      6.79611683e+00 1.46601944e+02 1.45631065e+01 1.83495148e+02
      2.91262150e+01 2.17475739e+02 5.24271851e+01 2.46601944e+02
      8.25242767e+01 2.69902924e+02 1.16504860e+02 2.89320404e+02
      1.55339813e+02 2.95145630e+02 1.89320389e+02 2.88349518e+02
      2.13592239e+02 2.68932037e+02 2.33980591e+02 2.44660202e+02
      2.49514572e+02 2.13592239e+02 2.57281555e+02 1.81553406e+02
      2.64077667e+02 1.48543686e+02 2.66990295e+02 1.15533981e+02
      2.66019440e+02 8.44660187e+01 4.36893234e+01 3.39805832e+01
      6.40776749e+01 1.74757290e+01 9.22330093e+01 1.45631065e+01
      1.18446602e+02 2.03883495e+01 1.42718445e+02 3.30097084e+01
      1.80582535e+02 3.59223328e+01 2.01941757e+02 2.52427197e+01
      2.26213593e+02 2.23300972e+01 2.48543701e+02 2.91262150e+01
      2.58252441e+02 5.04854393e+01 1.61165054e+02 6.50485458e+01
      1.64077667e+02 8.54368973e+01 1.66019424e+02 1.04854370e+02
      1.67961166e+02 1.26213593e+02 1.32038834e+02 1.54368942e+02
      1.47572815e+02 1.57281555e+02 1.62135925e+02 1.60194183e+02
      1.74757294e+02 1.58252426e+02 1.87378647e+02 1.56310684e+02
      6.89320374e+01 6.60194168e+01 8.54368973e+01 5.82524300e+01
      1.03883499e+02 5.82524300e+01 1.19417480e+02 6.99029160e+01
      1.02912621e+02 7.28155365e+01 8.44660187e+01 7.18446655e+01
      1.92233017e+02 7.57281570e+01 2.09708740e+02 6.69902954e+01
      2.27184479e+02 6.79611664e+01 2.38834961e+02 7.86407776e+01
      2.27184479e+02 8.25242767e+01 2.09708740e+02 8.05825272e+01
      1.08737869e+02 2.04854370e+02 1.30097092e+02 1.92233017e+02
      1.48543686e+02 1.83495148e+02 1.61165054e+02 1.88349518e+02
      1.71844666e+02 1.85436905e+02 1.86407776e+02 1.95145630e+02
      1.99029129e+02 2.09708740e+02 1.86407776e+02 2.20388351e+02
      1.72815536e+02 2.24271851e+02 1.60194183e+02 2.25242722e+02
      1.46601944e+02 2.23300980e+02 1.28155350e+02 2.17475739e+02
      1.17475731e+02 2.04854370e+02 1.47572815e+02 2.02912628e+02
      1.60194183e+02 2.03883499e+02 1.72815536e+02 2.03883499e+02
      1.91262146e+02 2.08737869e+02 1.71844666e+02 2.04854370e+02
      1.60194183e+02 2.04854370e+02 1.47572815e+02 2.03883499e+02</_>
    <_>
      1.74757290e+01 7.86407776e+01 2.03883495e+01 1.12621361e+02
      2.62135925e+01 1.46601944e+02 3.30097084e+01 1.80582535e+02
      4.46601944e+01 2.13592239e+02 6.50485458e+01 2.41747574e+02
      9.12621384e+01 2.66019440e+02 1.21359230e+02 2.87378662e+02
      1.59223312e+02 2.92233032e+02 1.96116516e+02 2.87378662e+02
      2.24271851e+02 2.66990295e+02 2.48543701e+02 2.43689331e+02
      2.66019440e+02 2.14563110e+02 2.75728149e+02 1.81553406e+02
      2.83495148e+02 1.47572815e+02 2.87378662e+02 1.13592239e+02
      2.89320404e+02 7.76699066e+01 4.27184486e+01 3.49514580e+01
      6.01941757e+01 1.84466019e+01 8.44660187e+01 1.45631065e+01
      1.09708740e+02 2.03883495e+01 1.33009720e+02 2.81553402e+01
      1.77669907e+02 2.91262150e+01 2.01941757e+02 1.84466019e+01
      2.30097092e+02 1.35922337e+01 2.56310699e+02 2.33009720e+01
      2.70873779e+02 4.56310692e+01 1.55339813e+02 6.01941757e+01
      1.55339813e+02 8.15533981e+01 1.56310684e+02 1.01941750e+02
      1.56310684e+02 1.23300972e+02 1.26213593e+02 1.52427185e+02
      1.39805832e+02 1.54368942e+02 1.53398056e+02 1.57281555e+02
      1.67961166e+02 1.55339813e+02 1.81553406e+02 1.53398056e+02
      6.69902954e+01 6.69902954e+01 8.25242767e+01 5.82524300e+01
      1.00970879e+02 5.82524300e+01 1.15533981e+02 6.99029160e+01 100.
      7.37864075e+01 8.05825272e+01 7.37864075e+01 1.96116516e+02
      7.18446655e+01 2.12621368e+02 6.11650505e+01 2.31067963e+02
      6.11650505e+01 2.44660202e+02 7.08737869e+01 2.32038849e+02
      7.66990280e+01 2.13592239e+02 7.57281570e+01 1.07766991e+02
      2.05825241e+02 1.24271851e+02 1.91262146e+02 1.40776703e+02
      1.81553406e+02 1.53398056e+02 1.86407776e+02 1.66019424e+02
      1.82524277e+02 1.84466019e+02 1.92233017e+02 200. 2.06796127e+02
      1.84466019e+02 2.18446609e+02 1.67961166e+02 2.22330109e+02
      1.53398056e+02 2.24271851e+02 1.39805832e+02 2.22330109e+02
      1.23300972e+02 2.17475739e+02 1.16504860e+02 2.04854370e+02
      1.40776703e+02 2.00970886e+02 1.53398056e+02 2.01941757e+02
      1.66990295e+02 2.00970886e+02 1.91262146e+02 2.05825241e+02
      1.66990295e+02 2.01941757e+02 1.53398056e+02 2.02912628e+02
      1.40776703e+02 2.00970886e+02</_>
    <_>
      1.55339813e+01 8.44660187e+01 1.65048542e+01 1.14563110e+02
      2.03883495e+01 1.46601944e+02 2.52427197e+01 1.79611649e+02
      3.59223328e+01 2.13592239e+02 5.33980598e+01 2.41747574e+02
      7.57281570e+01 2.66990295e+02 1.03883499e+02 2.87378662e+02
      1.39805832e+02 2.93203888e+02 1.77669907e+02 2.89320404e+02
      2.06796127e+02 2.70873779e+02 2.33980591e+02 2.47572815e+02
      2.55339813e+02 2.17475739e+02 2.68932037e+02 1.85436905e+02
      2.75728149e+02 1.50485443e+02 2.80582520e+02 1.16504860e+02
      2.81553406e+02 8.25242767e+01 2.91262150e+01 3.98058281e+01
      4.46601944e+01 2.13592243e+01 6.99029160e+01 1.65048542e+01
      9.41747589e+01 2.13592243e+01 1.17475731e+02 3.10679626e+01
      1.58252426e+02 2.91262150e+01 1.84466019e+02 1.74757290e+01
      2.12621368e+02 1.35922337e+01 2.39805832e+02 2.33009720e+01
      2.55339813e+02 4.75728188e+01 1.37864075e+02 6.01941757e+01
      1.37864075e+02 8.15533981e+01 1.36893204e+02 1.00970879e+02
      1.35922333e+02 1.22330101e+02 1.08737869e+02 1.52427185e+02
      1.21359230e+02 1.54368942e+02 1.34951462e+02 1.57281555e+02
      1.49514572e+02 1.54368942e+02 1.64077667e+02 1.53398056e+02
      5.24271851e+01 6.89320374e+01 6.69902954e+01 5.82524300e+01
      8.64077682e+01 5.72815552e+01 1.02912621e+02 6.99029160e+01
      8.54368973e+01 7.47572861e+01 6.60194168e+01 7.47572861e+01
      1.79611649e+02 6.99029160e+01 1.97087387e+02 6.01941757e+01
      2.16504868e+02 5.92233009e+01 2.30097092e+02 6.99029160e+01
      2.17475739e+02 7.57281570e+01 1.98058258e+02 7.47572861e+01
      9.22330093e+01 2.05825241e+02 1.06796120e+02 1.91262146e+02
      1.23300972e+02 1.81553406e+02 1.35922333e+02 1.86407776e+02
      1.47572815e+02 1.81553406e+02 1.66019424e+02 1.91262146e+02
      1.86407776e+02 2.07766998e+02 1.66990295e+02 2.18446609e+02
      1.49514572e+02 2.23300980e+02 1.35922333e+02 2.23300980e+02
      1.22330101e+02 2.22330109e+02 1.05825249e+02 2.17475739e+02 100.
      2.04854370e+02 1.23300972e+02 2.00970886e+02 1.35922333e+02
      2.01941757e+02 1.47572815e+02 2.00970886e+02 1.76699036e+02
      2.05825241e+02 1.47572815e+02 2.00970886e+02 1.35922333e+02
      2.00970886e+02 1.23300972e+02 200.</_>
    <_>
      3.95161285e+01 9.67741928e+01 4.11290321e+01 1.20967743e+02
      4.35483856e+01 1.45967743e+02 4.75806465e+01 1.73387100e+02
      5.64516106e+01 2.00806458e+02 7.09677429e+01 2.23387100e+02
      9.19354858e+01 2.43548386e+02 1.14516129e+02 2.62096771e+02
      1.45161285e+02 2.67741943e+02 1.76612900e+02 2.62903229e+02
      2.03225800e+02 2.46774185e+02 2.25806442e+02 2.27419357e+02
      2.44354843e+02 2.02419357e+02 2.54032257e+02 1.74193542e+02
      2.60483856e+02 1.45161285e+02 2.62903229e+02 1.15322578e+02
      2.62903229e+02 8.54838715e+01 5.16129036e+01 5.32258072e+01
      6.37096786e+01 4.11290321e+01 8.22580643e+01 3.79032249e+01
      1.01612900e+02 4.11290321e+01 1.20161293e+02 4.83870964e+01
      1.57258057e+02 4.59677429e+01 1.76612900e+02 3.62903214e+01
      2.00806458e+02 3.22580643e+01 2.23387100e+02 3.95161285e+01
      2.38709671e+02 5.64516106e+01 1.38709671e+02 7.25806427e+01
      1.37903229e+02 8.95161285e+01 1.37096771e+02 1.05645157e+02
      1.36290329e+02 1.23387093e+02 1.16129028e+02 1.49193542e+02
      1.25806450e+02 1.51612900e+02 1.37096771e+02 1.52419357e+02
      1.48387100e+02 1.50806458e+02 1.60483871e+02 150. 7.01612930e+01
      8.14516144e+01 8.14516144e+01 7.17741928e+01 9.75806427e+01
      7.09677429e+01 1.08870964e+02 8.14516144e+01 9.67741928e+01
      8.54838715e+01 8.14516144e+01 8.62903214e+01 1.76612900e+02
      8.06451569e+01 1.90322586e+02 7.17741928e+01 2.06451614e+02
      7.09677429e+01 2.17741928e+02 8.06451569e+01 2.06451614e+02
      8.62903214e+01 1.90322586e+02 8.54838715e+01 1.03225807e+02
      1.94354843e+02 1.13709679e+02 1.82258057e+02 1.26612900e+02
      1.73387100e+02 1.37096771e+02 1.77419357e+02 1.48387100e+02
      1.73387100e+02 1.63709671e+02 1.81451614e+02 1.80645157e+02
      1.94354843e+02 1.65322586e+02 2.04838715e+02 150. 2.08064514e+02
      1.37903229e+02 2.08870972e+02 1.26612900e+02 2.07258057e+02
      1.12903221e+02 2.03225800e+02 1.08870964e+02 1.92741928e+02
      1.26612900e+02 1.89516129e+02 1.37096771e+02 1.90322586e+02
      1.49193542e+02 1.90322586e+02 1.72580643e+02 1.93548386e+02
      1.49193542e+02 1.90322586e+02 1.37096771e+02 1.91129028e+02
      1.26612900e+02 1.90322586e+02</_>
    <_>
      4.93548393e+01 1.22903229e+02 5.03225822e+01 1.49032257e+02
      5.32258072e+01 1.78064514e+02 5.90322609e+01 2.09032257e+02
      6.48387146e+01 240. 7.64516144e+01 2.70967743e+02 9.38709717e+01
      300. 1.18064522e+02 3.21290344e+02 1.53870972e+02 3.26129028e+02
      1.93548386e+02 3.21290344e+02 2.26451614e+02 3.04838715e+02
      2.53548401e+02 2.81612915e+02 2.76774200e+02 2.52580658e+02
      2.90322601e+02 2.20645172e+02 2.99032257e+02 1.84838715e+02
      3.02903229e+02 150. 3.03870972e+02 1.15161293e+02 5.03225822e+01
      6.87096786e+01 6.29032288e+01 5.51612930e+01 8.22580643e+01
      5.22580643e+01 1.03548393e+02 5.61290321e+01 1.23870972e+02
      6.38709679e+01 1.67419357e+02 60. 1.92580658e+02 4.83870964e+01
      2.21612915e+02 4.35483894e+01 2.49677429e+02 5.22580643e+01
      2.66129028e+02 7.45161285e+01 1.46129044e+02 9.29032288e+01
      1.45161301e+02 1.13225807e+02 1.43225815e+02 1.33548386e+02
      1.41290329e+02 1.54838715e+02 1.19032265e+02 1.84838715e+02
      1.30645172e+02 1.86774200e+02 1.44193558e+02 1.89677429e+02
      1.57741943e+02 1.86774200e+02 1.72258072e+02 1.84838715e+02
      6.87096786e+01 1.03548393e+02 8.12903214e+01 9.29032288e+01
      1.00645164e+02 9.19354858e+01 1.16129036e+02 1.04516129e+02
      1.00645164e+02 1.09354843e+02 8.12903214e+01 1.10322586e+02
      1.90645172e+02 1.02580650e+02 2.08064529e+02 9.09677429e+01
      2.27419357e+02 90. 2.42903229e+02 1.00645164e+02 2.28387100e+02
      1.07419357e+02 2.09032257e+02 1.07419357e+02 1.02580650e+02
      2.39032272e+02 1.16129036e+02 2.22580658e+02 1.30645172e+02
      2.11935486e+02 1.43225815e+02 2.16774200e+02 1.56774200e+02
      2.11935486e+02 1.77096786e+02 2.22580658e+02 1.98387100e+02
      2.39032272e+02 1.78064514e+02 2.50645172e+02 1.59677429e+02
      2.55483871e+02 1.44193558e+02 2.56451630e+02 1.29677429e+02
      2.55483871e+02 1.14193550e+02 2.49677429e+02 1.09354843e+02
      2.37096786e+02 1.31612900e+02 2.32258072e+02 1.43225815e+02
      2.33225815e+02 1.57741943e+02 2.32258072e+02 1.88709686e+02
      2.38064529e+02 1.57741943e+02 2.33225815e+02 1.43225815e+02
      2.34193558e+02 1.30645172e+02 2.33225815e+02</_>
    <_>
      4.74193573e+01 1.21935486e+02 4.35483894e+01 1.44193558e+02
      4.35483894e+01 1.69354843e+02 4.54838715e+01 1.97419357e+02
      4.74193573e+01 2.29354843e+02 5.22580643e+01 2.61290344e+02
      6.58064499e+01 2.91290344e+02 8.80645218e+01 3.14516144e+02
      1.20967743e+02 3.22258087e+02 1.61612915e+02 3.21290344e+02
      2.01290329e+02 3.05806458e+02 2.36129044e+02 2.84516144e+02
      2.64193542e+02 2.55483871e+02 2.78709686e+02 2.22580658e+02
      2.89354858e+02 1.87741943e+02 2.95161285e+02 1.52903229e+02
      2.97096771e+02 1.17096779e+02 3.77419357e+01 6.96774216e+01
      4.74193573e+01 5.41935501e+01 6.48387146e+01 5.12903252e+01
      8.41935501e+01 5.61290321e+01 1.02580650e+02 6.48387146e+01
      1.39354843e+02 6.09677429e+01 1.66451614e+02 4.83870964e+01
      1.96451614e+02 4.45161285e+01 2.26451614e+02 5.41935501e+01
      2.46774200e+02 7.64516144e+01 1.17096779e+02 9.38709717e+01
      1.12258064e+02 1.13225807e+02 1.06451614e+02 1.31612900e+02
      9.96774216e+01 1.51935486e+02 8.70967789e+01 1.80967743e+02
      9.58064575e+01 1.83870972e+02 1.07419357e+02 1.86774200e+02
      1.21935486e+02 1.84838715e+02 1.38387100e+02 1.82903229e+02
      5.32258072e+01 1.01612907e+02 6.38709679e+01 9.09677429e+01
      8.22580643e+01 90. 9.87096786e+01 1.02580650e+02 8.12903214e+01
      1.06451614e+02 6.38709679e+01 1.07419357e+02 1.66451614e+02
      1.01612907e+02 1.83870972e+02 90. 2.03225815e+02 9.09677429e+01
      2.19677429e+02 1.00645164e+02 2.04193558e+02 1.06451614e+02
      1.83870972e+02 1.05483871e+02 7.45161285e+01 2.35161301e+02
      8.12903214e+01 2.19677429e+02 9.29032288e+01 210. 1.05483871e+02
      2.13870972e+02 1.18064522e+02 210. 1.38387100e+02 2.20645172e+02
      1.62580643e+02 2.38064529e+02 1.39354843e+02 2.46774200e+02
      1.21935486e+02 2.51612915e+02 1.07419357e+02 2.52580658e+02
      9.29032288e+01 2.50645172e+02 8.22580643e+01 2.44838715e+02
      8.12903214e+01 2.33225815e+02 9.38709717e+01 2.29354843e+02
      1.06451614e+02 2.30322586e+02 120. 2.29354843e+02 1.51935486e+02
      2.37096786e+02 1.19032265e+02 2.30322586e+02 1.05483871e+02
      2.30322586e+02 9.29032288e+01 2.30322586e+02</_>
    <_>
      6.96774216e+01 1.24838715e+02 6.58064499e+01 150. 6.67741928e+01
      1.76129044e+02 6.87096786e+01 2.05161301e+02 7.06451645e+01
      2.37096786e+02 7.74193573e+01 2.67096771e+02 8.90322571e+01
      2.97096771e+02 1.06451614e+02 3.20322601e+02 1.36451614e+02
      3.27096771e+02 1.78064514e+02 3.26129028e+02 2.17741943e+02
      3.14516144e+02 2.55483871e+02 2.95161285e+02 2.86451630e+02
      2.67096771e+02 3.04838715e+02 2.34193558e+02 3.17419373e+02
      1.98387100e+02 3.25161285e+02 1.60645172e+02 3.30967743e+02
      1.21935486e+02 6.29032288e+01 6.96774216e+01 7.16129074e+01
      5.70967751e+01 8.61290359e+01 5.51612930e+01 1.03548393e+02
      5.80645180e+01 120. 6.58064499e+01 1.60645172e+02 6.19354858e+01
      1.89677429e+02 5.03225822e+01 2.19677429e+02 4.83870964e+01
      2.49677429e+02 5.90322609e+01 2.71935486e+02 7.93548431e+01
      1.36451614e+02 9.67741928e+01 1.31612900e+02 1.16129036e+02
      1.24838715e+02 1.36451614e+02 1.18064522e+02 1.56774200e+02
      1.05483871e+02 1.84838715e+02 1.15161293e+02 1.86774200e+02
      1.24838715e+02 1.89677429e+02 1.39354843e+02 1.87741943e+02
      1.55806458e+02 1.87741943e+02 7.83871002e+01 1.02580650e+02
      8.80645218e+01 9.29032288e+01 1.05483871e+02 9.19354858e+01
      1.19032265e+02 1.05483871e+02 1.04516129e+02 1.08387100e+02
      8.80645218e+01 1.09354843e+02 1.86774200e+02 1.06451614e+02
      2.04193558e+02 9.38709717e+01 2.24516129e+02 9.48387146e+01 240.
      1.05483871e+02 2.24516129e+02 1.11290329e+02 2.05161301e+02
      1.10322586e+02 9.29032288e+01 2.39032272e+02 9.96774216e+01
      2.22580658e+02 1.11290329e+02 2.13870972e+02 1.22903229e+02
      2.18709686e+02 1.37419357e+02 2.14838715e+02 1.58709686e+02
      2.26451614e+02 1.81935486e+02 2.45806458e+02 1.57741943e+02
      2.52580658e+02 1.38387100e+02 2.56451630e+02 1.22903229e+02
      2.57419373e+02 1.10322586e+02 2.55483871e+02 9.87096786e+01
      2.49677429e+02 9.96774216e+01 2.37096786e+02 1.12258064e+02
      2.34193558e+02 1.23870972e+02 2.35161301e+02 1.38387100e+02
      2.35161301e+02 1.71290329e+02 2.43870972e+02 1.37419357e+02
      2.36129044e+02 1.22903229e+02 2.36129044e+02 1.11290329e+02
      2.35161301e+02</_>
    <_>
      7.35483856e+01 1.21935486e+02 6.87096786e+01 1.44193558e+02
      6.77419357e+01 1.68387100e+02 6.96774216e+01 1.95483871e+02
      7.06451645e+01 2.27419357e+02 7.45161285e+01 2.59354858e+02
      8.41935501e+01 2.92258087e+02 9.96774216e+01 3.19354858e+02
      1.31612900e+02 3.28064514e+02 1.74193558e+02 3.27096771e+02
      2.14838715e+02 3.14516144e+02 2.51612915e+02 2.94193542e+02
      2.82580658e+02 2.66129028e+02 3.01935486e+02 2.33225815e+02
      3.16451630e+02 1.97419357e+02 3.25161285e+02 1.59677429e+02 330.
      1.20967743e+02 6.19354858e+01 6.87096786e+01 7.06451645e+01
      5.61290321e+01 8.61290359e+01 5.51612930e+01 1.02580650e+02 60.
      1.19032265e+02 6.87096786e+01 1.55806458e+02 6.38709679e+01
      1.83870972e+02 5.22580643e+01 2.14838715e+02 4.93548393e+01
      2.45806458e+02 60. 2.69032257e+02 7.93548431e+01 1.32580643e+02
      9.67741928e+01 1.26774200e+02 1.18064522e+02 120. 1.38387100e+02
      1.12258064e+02 1.59677429e+02 1.01612907e+02 1.85806458e+02
      1.10322586e+02 1.88709686e+02 1.20967743e+02 1.91612915e+02
      1.36451614e+02 1.89677429e+02 1.51935486e+02 1.89677429e+02
      7.54838715e+01 1.01612907e+02 8.51612930e+01 9.19354858e+01
      1.02580650e+02 9.19354858e+01 1.18064522e+02 1.05483871e+02
      1.00645164e+02 1.08387100e+02 8.41935501e+01 1.09354843e+02
      1.83870972e+02 1.07419357e+02 2.02258072e+02 9.48387146e+01
      2.21612915e+02 9.48387146e+01 2.37096786e+02 1.05483871e+02
      2.21612915e+02 1.12258064e+02 2.01290329e+02 1.11290329e+02 90.
      2.39032272e+02 9.48387146e+01 2.23548401e+02 1.06451614e+02
      2.15806458e+02 1.18064522e+02 2.19677429e+02 1.32580643e+02
      2.15806458e+02 1.52903229e+02 2.27419357e+02 1.78064514e+02
      2.45806458e+02 1.52903229e+02 2.54516144e+02 1.32580643e+02
      2.57419373e+02 1.18064522e+02 2.58387115e+02 1.04516129e+02
      2.57419373e+02 9.38709717e+01 2.50645172e+02 9.67741928e+01
      2.38064529e+02 1.06451614e+02 2.35161301e+02 1.18064522e+02
      2.36129044e+02 1.32580643e+02 2.36129044e+02 1.68387100e+02
      2.43870972e+02 1.31612900e+02 2.38064529e+02 1.17096779e+02
      2.37096786e+02 1.04516129e+02 2.37096786e+02</_>
    <_>
      6.45161285e+01 9.35483856e+01 6.29032249e+01 1.16935486e+02
      6.29032249e+01 1.41129028e+02 6.45161285e+01 1.66129028e+02
      6.93548355e+01 1.91935486e+02 7.82258072e+01 2.15322586e+02
      9.03225784e+01 2.39516129e+02 1.07258064e+02 2.58870972e+02
      1.31451614e+02 2.65322571e+02 1.63709671e+02 2.64516113e+02
      1.95967743e+02 2.54032257e+02 2.27419357e+02 2.38709671e+02
      2.53225800e+02 2.16935486e+02 2.69354828e+02 1.90322586e+02
      2.79838715e+02 1.60483871e+02 2.86290314e+02 1.29032257e+02
      2.90322571e+02 9.67741928e+01 6.93548355e+01 50. 7.74193573e+01
      3.95161285e+01 9.19354858e+01 3.87096786e+01 1.07258064e+02
      4.27419357e+01 1.21774193e+02 4.91935463e+01 1.54032257e+02
      4.83870964e+01 1.76612900e+02 3.87096786e+01 2.02419357e+02
      3.54838715e+01 2.27419357e+02 4.67741928e+01 2.45161285e+02
      6.61290283e+01 1.33870972e+02 7.41935501e+01 1.30645157e+02
      9.11290283e+01 1.25806450e+02 1.07258064e+02 1.20967743e+02
      1.24193550e+02 1.09677422e+02 1.49193542e+02 1.16935486e+02
      1.50806458e+02 1.25806450e+02 1.52419357e+02 1.37903229e+02
      1.51612900e+02 1.52419357e+02 1.51612900e+02 8.14516144e+01
      7.74193573e+01 9.19354858e+01 6.93548355e+01 1.06451614e+02
      7.01612930e+01 1.19354836e+02 8.06451569e+01 1.04838707e+02
      8.30645142e+01 9.03225784e+01 8.22580643e+01 1.75806458e+02
      8.30645142e+01 1.91129028e+02 7.41935501e+01 2.07258057e+02
      7.41935501e+01 2.20967743e+02 8.38709641e+01 2.06451614e+02
      8.87096786e+01 1.90322586e+02 8.70967712e+01 9.83870926e+01
      1.92741928e+02 1.04032257e+02 1.80645157e+02 1.12903221e+02
      1.73387100e+02 1.23387093e+02 1.76612900e+02 1.34677414e+02
      1.73387100e+02 1.51612900e+02 1.83870972e+02 1.69354843e+02
      1.98387100e+02 1.50806458e+02 2.04032257e+02 1.34677414e+02
      2.07258057e+02 1.23387093e+02 2.07258057e+02 1.11290321e+02
      2.04838715e+02 1.03225807e+02 200. 1.04032257e+02 1.91935486e+02
      1.12903221e+02 1.87903229e+02 1.23387093e+02 1.88709671e+02
      1.35483871e+02 1.89516129e+02 1.62096771e+02 1.96774185e+02
      1.34677414e+02 1.90322586e+02 1.23387093e+02 1.90322586e+02
      1.12903221e+02 1.89516129e+02</_>
    <_>
      5.90322609e+01 1.14193550e+02 5.61290321e+01 1.39354843e+02
      5.80645180e+01 1.67419357e+02 60. 1.97419357e+02 6.19354858e+01
      2.31290329e+02 6.96774216e+01 2.63225800e+02 8.32258072e+01
      2.94193542e+02 1.04516129e+02 3.17419373e+02 1.39354843e+02
      3.26129028e+02 1.80967743e+02 3.23225830e+02 2.16774200e+02
      3.07741943e+02 2.49677429e+02 2.85483887e+02 2.75806458e+02
      2.58387115e+02 2.92258087e+02 2.27419357e+02 3.01935486e+02
      1.92580658e+02 3.07741943e+02 1.59677429e+02 3.10645172e+02
      1.26774200e+02 60. 6.19354858e+01 7.06451645e+01 4.74193573e+01
      8.90322571e+01 4.64516144e+01 1.08387100e+02 5.22580643e+01
      1.26774200e+02 6.09677429e+01 1.72258072e+02 6.09677429e+01
      1.98387100e+02 5.12903252e+01 2.27419357e+02 4.83870964e+01
      2.54516144e+02 60. 2.70967743e+02 8.32258072e+01 1.48064514e+02
      9.19354858e+01 1.44193558e+02 1.12258064e+02 1.39354843e+02
      1.30645172e+02 1.34516129e+02 1.50967743e+02 1.13225807e+02
      1.79032257e+02 1.23870972e+02 1.82903229e+02 1.36451614e+02
      1.85806458e+02 150. 1.84838715e+02 1.65483871e+02 1.83870972e+02
      7.54838715e+01 9.67741928e+01 8.70967789e+01 8.70967789e+01
      1.05483871e+02 8.70967789e+01 120. 9.96774216e+01 1.04516129e+02
      1.04516129e+02 8.61290359e+01 1.04516129e+02 1.92580658e+02
      1.04516129e+02 2.10967743e+02 9.38709717e+01 2.30322586e+02
      9.58064575e+01 2.44838715e+02 1.06451614e+02 2.31290329e+02
      1.12258064e+02 2.10967743e+02 1.10322586e+02 9.38709717e+01
      2.34193558e+02 1.07419357e+02 2.19677429e+02 1.21935486e+02
      2.10967743e+02 1.34516129e+02 2.15806458e+02 1.48064514e+02
      2.11935486e+02 1.68387100e+02 2.25483871e+02 1.87741943e+02
      2.41935486e+02 1.66451614e+02 2.49677429e+02 1.47096771e+02
      2.53548401e+02 1.32580643e+02 2.53548401e+02 1.19032265e+02
      2.51612915e+02 1.04516129e+02 2.45806458e+02 1.00645164e+02
      2.34193558e+02 1.21935486e+02 2.31290329e+02 1.33548386e+02
      2.32258072e+02 1.49032257e+02 2.32258072e+02 1.78064514e+02 240.
      1.47096771e+02 2.32258072e+02 1.32580643e+02 2.32258072e+02 120.
      2.31290329e+02</_>
    <_>
      3.87096810e+00 1.04516129e+02 9.67742026e-01 1.36451614e+02
      2.90322590e+00 1.70322586e+02 5.80645180e+00 2.05161301e+02
      1.64516125e+01 2.41935486e+02 3.48387108e+01 2.71935486e+02
      5.90322609e+01 2.97096771e+02 8.80645218e+01 3.18387115e+02
      1.25806458e+02 3.27096771e+02 1.64516129e+02 3.25161285e+02
      1.94516129e+02 3.06774200e+02 2.19677429e+02 2.85483887e+02
      2.39032272e+02 2.57419373e+02 2.51612915e+02 2.24516129e+02
      2.61290344e+02 1.91612915e+02 2.69032257e+02 1.58709686e+02
      2.71935486e+02 1.25806458e+02 3.38709679e+01 5.80645180e+01
      5.22580643e+01 4.35483894e+01 7.74193573e+01 4.16129036e+01
      1.02580650e+02 4.83870964e+01 1.24838715e+02 60. 1.67419357e+02
      6.48387146e+01 1.91612915e+02 5.61290321e+01 2.18709686e+02
      5.41935501e+01 2.42903229e+02 6.58064499e+01 2.53548401e+02 90.
      1.45161301e+02 9.29032288e+01 1.44193558e+02 1.12258064e+02
      1.43225815e+02 1.31612900e+02 1.42258072e+02 1.51935486e+02
      1.09354843e+02 180. 1.22903229e+02 1.83870972e+02 1.36451614e+02
      1.87741943e+02 1.50967743e+02 1.86774200e+02 1.66451614e+02
      1.85806458e+02 5.51612930e+01 9.19354858e+01 7.06451645e+01
      8.41935501e+01 8.90322571e+01 8.51612930e+01 1.03548393e+02
      9.87096786e+01 8.61290359e+01 9.96774216e+01 6.87096786e+01
      9.87096786e+01 1.83870972e+02 1.07419357e+02 2.00322586e+02
      9.87096786e+01 2.18709686e+02 9.96774216e+01 2.30322586e+02
      1.11290329e+02 2.17741943e+02 1.15161293e+02 2.00322586e+02
      1.12258064e+02 8.51612930e+01 2.32258072e+02 1.02580650e+02
      2.18709686e+02 1.21935486e+02 210. 1.34516129e+02 2.16774200e+02
      1.48064514e+02 2.12903229e+02 1.64516129e+02 2.25483871e+02
      1.79032257e+02 2.43870972e+02 1.62580643e+02 2.51612915e+02
      1.45161301e+02 2.54516144e+02 1.30645172e+02 2.54516144e+02
      1.16129036e+02 2.51612915e+02 9.87096786e+01 2.45806458e+02
      9.29032288e+01 2.32258072e+02 120. 2.30322586e+02 1.33548386e+02
      2.33225815e+02 1.47096771e+02 2.33225815e+02 1.70322586e+02
      2.41935486e+02 1.46129044e+02 2.33225815e+02 1.32580643e+02
      2.32258072e+02 1.19032265e+02 2.29354843e+02</_>
    <_>
      9.67741966e+00 9.96774216e+01 6.77419376e+00 1.34516129e+02
      6.77419376e+00 1.70322586e+02 1.06451616e+01 2.06129044e+02
      2.12903233e+01 2.42903229e+02 4.16129036e+01 2.71935486e+02
      6.87096786e+01 2.97096771e+02 9.87096786e+01 3.18387115e+02
      1.37419357e+02 3.26129028e+02 1.75161301e+02 3.25161285e+02
      2.04193558e+02 3.08709686e+02 2.27419357e+02 2.84516144e+02
      2.44838715e+02 2.54516144e+02 2.55483871e+02 2.20645172e+02
      2.64193542e+02 1.88709686e+02 2.70967743e+02 1.56774200e+02
      2.72903229e+02 1.23870972e+02 4.74193573e+01 5.41935501e+01
      6.77419357e+01 4.06451607e+01 9.38709717e+01 4.16129036e+01
      1.19032265e+02 4.93548393e+01 1.41290329e+02 6.19354858e+01 180.
      6.67741928e+01 2.04193558e+02 5.70967751e+01 2.31290329e+02
      5.61290321e+01 2.55483871e+02 6.87096786e+01 2.64193542e+02
      9.19354858e+01 1.59677429e+02 9.48387146e+01 1.59677429e+02
      1.14193550e+02 1.58709686e+02 1.32580643e+02 1.58709686e+02
      1.51935486e+02 1.22903229e+02 180. 1.37419357e+02 1.83870972e+02
      1.51935486e+02 1.87741943e+02 1.65483871e+02 1.86774200e+02
      1.79032257e+02 1.86774200e+02 6.87096786e+01 9.09677429e+01
      8.51612930e+01 8.22580643e+01 1.03548393e+02 8.41935501e+01
      1.17096779e+02 9.77419357e+01 1.00645164e+02 9.87096786e+01
      8.22580643e+01 9.67741928e+01 1.94516129e+02 1.07419357e+02
      2.10967743e+02 9.87096786e+01 2.29354843e+02 1.00645164e+02 240.
      1.12258064e+02 2.27419357e+02 1.15161293e+02 2.10967743e+02
      1.12258064e+02 9.77419357e+01 2.33225815e+02 1.17096779e+02
      2.18709686e+02 1.36451614e+02 2.10967743e+02 150. 2.16774200e+02
      1.63548386e+02 2.12903229e+02 180. 2.25483871e+02 1.92580658e+02
      2.43870972e+02 1.77096786e+02 2.52580658e+02 1.60645172e+02
      2.55483871e+02 1.47096771e+02 2.54516144e+02 1.31612900e+02
      2.52580658e+02 1.13225807e+02 2.45806458e+02 1.05483871e+02
      2.33225815e+02 1.35483871e+02 2.31290329e+02 1.49032257e+02
      2.33225815e+02 1.62580643e+02 2.34193558e+02 1.83870972e+02
      2.41935486e+02 1.61612915e+02 2.34193558e+02 1.48064514e+02
      2.33225815e+02 1.33548386e+02 2.31290329e+02</_>
    <_>
      -1.06451616e+01 9.77419357e+01 -1.16129036e+01 1.34516129e+02
      -1.06451616e+01 1.73225815e+02 -5.80645180e+00 2.11935486e+02
      8.70967770e+00 2.49677429e+02 3.48387108e+01 2.78709686e+02
      7.16129074e+01 3.02903229e+02 1.09354843e+02 3.23225830e+02
      1.50967743e+02 3.30967743e+02 1.85806458e+02 3.26129028e+02
      2.07096786e+02 3.05806458e+02 2.22580658e+02 2.77741943e+02
      2.34193558e+02 2.46774200e+02 2.40967743e+02 2.14838715e+02
      2.46774200e+02 1.83870972e+02 2.48709686e+02 1.55806458e+02
      2.46774200e+02 1.27741936e+02 5.70967751e+01 6.19354858e+01
      7.93548431e+01 4.64516144e+01 1.09354843e+02 4.35483894e+01
      1.36451614e+02 5.12903252e+01 1.61612915e+02 6.58064499e+01
      1.94516129e+02 7.16129074e+01 2.13870972e+02 6.58064499e+01
      2.34193558e+02 6.48387146e+01 2.51612915e+02 7.45161285e+01
      2.54516144e+02 9.48387146e+01 1.78064514e+02 1.00645164e+02
      1.80967743e+02 1.19032265e+02 1.84838715e+02 1.37419357e+02
      1.88709686e+02 1.56774200e+02 1.46129044e+02 1.85806458e+02
      1.61612915e+02 1.88709686e+02 1.76129044e+02 1.92580658e+02
      1.87741943e+02 1.91612915e+02 1.98387100e+02 1.89677429e+02
      8.51612930e+01 90. 1.01612907e+02 8.32258072e+01 1.19032265e+02
      8.41935501e+01 1.31612900e+02 9.87096786e+01 1.17096779e+02
      9.87096786e+01 9.96774216e+01 9.58064575e+01 1.93548386e+02
      1.08387100e+02 210. 9.96774216e+01 2.25483871e+02 1.02580650e+02
      2.33225815e+02 1.15161293e+02 2.23548401e+02 1.15161293e+02
      2.09032257e+02 1.13225807e+02 1.17096779e+02 2.37096786e+02
      1.41290329e+02 2.23548401e+02 1.62580643e+02 2.14838715e+02
      1.74193558e+02 2.21612915e+02 1.84838715e+02 2.18709686e+02
      1.98387100e+02 2.30322586e+02 2.04193558e+02 2.48709686e+02
      1.94516129e+02 2.54516144e+02 1.81935486e+02 2.57419373e+02
      1.69354843e+02 2.56451630e+02 1.56774200e+02 2.53548401e+02
      1.38387100e+02 2.47741943e+02 1.26774200e+02 2.37096786e+02
      1.60645172e+02 2.34193558e+02 1.72258072e+02 2.36129044e+02
      1.82903229e+02 2.38064529e+02 1.97419357e+02 2.45806458e+02
      1.82903229e+02 2.38064529e+02 1.71290329e+02 2.37096786e+02
      1.59677429e+02 2.34193558e+02</_>
    <_>
      1.35483875e+01 1.01612907e+02 1.16129036e+01 1.34516129e+02
      1.06451616e+01 1.70322586e+02 1.35483875e+01 2.05161301e+02
      2.51612911e+01 2.39032272e+02 5.03225822e+01 2.67096771e+02
      8.32258072e+01 2.88387115e+02 1.19032265e+02 3.05806458e+02
      1.57741943e+02 3.11612915e+02 1.89677429e+02 3.09677429e+02
      2.11935486e+02 2.93225830e+02 2.27419357e+02 2.69032257e+02
      2.36129044e+02 240. 2.43870972e+02 2.10967743e+02 2.51612915e+02
      1.83870972e+02 2.54516144e+02 1.57741943e+02 2.54516144e+02
      1.32580643e+02 7.25806503e+01 5.03225822e+01 9.67741928e+01
      4.25806465e+01 1.21935486e+02 4.45161285e+01 1.45161301e+02
      5.22580643e+01 1.64516129e+02 6.48387146e+01 1.99354843e+02
      6.96774216e+01 2.17741943e+02 6.29032288e+01 2.37096786e+02
      6.29032288e+01 2.52580658e+02 7.16129074e+01 2.57419373e+02
      8.80645218e+01 1.80967743e+02 9.58064575e+01 1.82903229e+02
      1.13225807e+02 1.85806458e+02 1.29677429e+02 1.87741943e+02
      1.46129044e+02 150. 1.73225815e+02 1.63548386e+02 1.77096786e+02
      1.76129044e+02 1.80967743e+02 1.87741943e+02 1.80967743e+02
      1.98387100e+02 1.79032257e+02 9.38709717e+01 8.80645218e+01
      1.10322586e+02 7.93548431e+01 1.27741936e+02 8.12903214e+01
      1.38387100e+02 9.58064575e+01 1.24838715e+02 9.58064575e+01
      1.08387100e+02 9.38709717e+01 1.98387100e+02 1.05483871e+02
      2.14838715e+02 9.48387146e+01 2.31290329e+02 9.77419357e+01
      2.39032272e+02 1.11290329e+02 2.29354843e+02 1.12258064e+02
      2.13870972e+02 1.09354843e+02 1.25806458e+02 2.23548401e+02
      1.47096771e+02 2.09032257e+02 1.65483871e+02 2.01290329e+02
      1.77096786e+02 2.06129044e+02 1.88709686e+02 2.04193558e+02
      2.01290329e+02 2.15806458e+02 2.07096786e+02 2.34193558e+02
      1.98387100e+02 2.39032272e+02 1.86774200e+02 2.41935486e+02
      1.74193558e+02 2.40967743e+02 1.60645172e+02 2.39032272e+02
      1.44193558e+02 2.34193558e+02 1.34516129e+02 2.22580658e+02
      1.64516129e+02 2.19677429e+02 1.75161301e+02 2.20645172e+02
      1.86774200e+02 2.22580658e+02 2.00322586e+02 2.31290329e+02
      1.86774200e+02 2.22580658e+02 1.75161301e+02 2.22580658e+02
      1.63548386e+02 2.20645172e+02</_>
    <_>
      4.83870983e+00 1.01612907e+02 3.87096810e+00 1.33548386e+02
      2.90322590e+00 1.67419357e+02 5.80645180e+00 2.01290329e+02
      1.83870964e+01 2.34193558e+02 3.96774216e+01 2.62258087e+02
      7.16129074e+01 2.83548401e+02 1.08387100e+02 3.00967743e+02
      1.46129044e+02 3.05806458e+02 1.78064514e+02 3.01935486e+02
      2.01290329e+02 2.84516144e+02 2.15806458e+02 2.60322601e+02
      2.25483871e+02 2.33225815e+02 2.32258072e+02 2.05161301e+02
      2.37096786e+02 1.78064514e+02 240. 1.50967743e+02 2.38064529e+02
      1.27741936e+02 6.29032288e+01 5.80645180e+01 8.41935501e+01
      4.74193573e+01 1.09354843e+02 5.03225822e+01 1.31612900e+02
      5.80645180e+01 1.50967743e+02 6.96774216e+01 1.81935486e+02
      7.54838715e+01 1.99354843e+02 6.87096786e+01 2.17741943e+02
      6.67741928e+01 2.32258072e+02 7.35483856e+01 2.38064529e+02
      8.80645218e+01 1.65483871e+02 1.00645164e+02 1.67419357e+02
      1.17096779e+02 1.70322586e+02 1.31612900e+02 1.72258072e+02
      1.47096771e+02 1.36451614e+02 1.74193558e+02 1.49032257e+02
      1.77096786e+02 1.62580643e+02 180. 1.73225815e+02 1.80967743e+02
      1.82903229e+02 1.79032257e+02 8.32258072e+01 9.09677429e+01
      9.77419357e+01 8.41935501e+01 1.13225807e+02 8.70967789e+01
      1.23870972e+02 9.96774216e+01 1.11290329e+02 9.96774216e+01
      9.58064575e+01 9.67741928e+01 1.86774200e+02 1.09354843e+02
      2.02258072e+02 1.01612907e+02 2.16774200e+02 1.03548393e+02
      2.24516129e+02 1.14193550e+02 2.14838715e+02 1.15161293e+02
      2.01290329e+02 1.13225807e+02 1.11290329e+02 2.21612915e+02
      1.31612900e+02 2.07096786e+02 1.50967743e+02 1.99354843e+02
      1.61612915e+02 2.04193558e+02 1.73225815e+02 2.02258072e+02
      1.85806458e+02 2.12903229e+02 1.93548386e+02 2.30322586e+02
      1.82903229e+02 2.38064529e+02 1.70322586e+02 2.39032272e+02
      1.58709686e+02 2.39032272e+02 1.45161301e+02 2.36129044e+02
      1.27741936e+02 2.32258072e+02 1.19032265e+02 2.21612915e+02
      1.49032257e+02 2.17741943e+02 1.60645172e+02 2.18709686e+02
      1.72258072e+02 2.20645172e+02 1.86774200e+02 2.28387100e+02
      1.70322586e+02 2.20645172e+02 1.59677429e+02 2.19677429e+02
      1.47096771e+02 2.18709686e+02</_>
    <_>
      0. 1.16279068e+02 -1.16279101e+00 1.51162781e+02 -1.16279101e+00
      1.88372086e+02 4.65116310e+00 2.24418594e+02 1.74418602e+01
      2.60465118e+02 4.18604660e+01 2.90697662e+02 7.44186020e+01
      3.13953491e+02 1.12790695e+02 3.33720917e+02 1.53488373e+02
      3.39534882e+02 1.90697678e+02 3.34883728e+02 2.17441864e+02
      3.17441864e+02 2.36046509e+02 2.91860474e+02 2.48837204e+02
      2.60465118e+02 2.58139526e+02 2.29069763e+02 2.65116272e+02
      1.97674408e+02 2.67441864e+02 1.67441864e+02 2.66279053e+02
      1.38372086e+02 5.34883728e+01 6.86046524e+01 7.67441864e+01
      5.34883728e+01 1.04651161e+02 5.23255806e+01 1.31395340e+02
      5.93023262e+01 1.55813950e+02 7.32558136e+01 1.89534882e+02
      7.79069748e+01 2.11627899e+02 6.86046524e+01 2.34883713e+02
      6.74418564e+01 2.55813950e+02 7.67441864e+01 2.62790680e+02
      9.76744156e+01 1.72093018e+02 1.04651161e+02 1.74418594e+02
      1.23255814e+02 1.76744186e+02 1.40697678e+02 1.79069763e+02
      1.60465118e+02 1.41860458e+02 1.89534882e+02 1.55813950e+02
      1.93023254e+02 1.69767441e+02 1.96511627e+02 1.83720932e+02
      1.95348831e+02 1.94186050e+02 1.94186050e+02 7.90697632e+01
      1.01162788e+02 9.53488388e+01 9.18604660e+01 1.13953484e+02
      9.30232544e+01 1.27906975e+02 1.06976746e+02 1.11627907e+02
      1.09302322e+02 9.30232544e+01 1.08139534e+02 200. 1.16279068e+02
      2.17441864e+02 1.06976746e+02 2.33720932e+02 1.08139534e+02
      2.43023254e+02 1.20930229e+02 2.33720932e+02 1.24418602e+02
      2.17441864e+02 1.22093018e+02 1.13953484e+02 2.41860458e+02
      1.37209305e+02 2.26744186e+02 1.56976746e+02 2.18604645e+02
      1.69767441e+02 2.24418594e+02 1.81395340e+02 2.20930222e+02
      1.96511627e+02 2.31395340e+02 2.05813950e+02 250. 1.94186050e+02
      2.58139526e+02 1.80232559e+02 2.60465118e+02 1.66279068e+02
      2.60465118e+02 1.52325577e+02 2.58139526e+02 1.33720932e+02
      2.54651154e+02 1.22093018e+02 2.41860458e+02 1.55813950e+02
      2.37209305e+02 1.68604645e+02 2.38372086e+02 1.81395340e+02
      2.39534882e+02 1.98837204e+02 2.47674408e+02 1.80232559e+02
      2.40697678e+02 1.67441864e+02 2.40697678e+02 1.54651154e+02
      2.38372086e+02</_>
    <_>
      1.62790699e+01 8.83720932e+01 1.51162786e+01 1.22093018e+02
      1.74418602e+01 1.59302322e+02 2.09302330e+01 1.96511627e+02
      3.13953476e+01 2.32558136e+02 5.34883728e+01 2.63953491e+02
      8.60465088e+01 2.86046509e+02 1.23255814e+02 3.05813934e+02
      1.63953491e+02 3.11627899e+02 200. 3.08139526e+02 2.26744186e+02
      2.89534882e+02 2.48837204e+02 2.66279053e+02 2.62790680e+02
      2.36046509e+02 2.70930237e+02 2.02325577e+02 2.76744171e+02
      1.68604645e+02 2.79069763e+02 1.37209305e+02 2.79069763e+02
      1.06976746e+02 6.51162796e+01 4.88372078e+01 8.60465088e+01
      3.60465126e+01 1.11627907e+02 3.48837204e+01 1.34883713e+02
      4.18604660e+01 1.56976746e+02 5.11627884e+01 1.97674408e+02
      5.46511612e+01 2.18604645e+02 4.76744194e+01 2.40697678e+02
      4.41860466e+01 2.60465118e+02 5.23255806e+01 2.68604645e+02
      7.09302292e+01 1.77906967e+02 8.48837204e+01 1.79069763e+02
      1.02325577e+02 1.81395340e+02 1.19767441e+02 1.83720932e+02
      1.37209305e+02 1.48837204e+02 1.67441864e+02 1.62790695e+02
      1.69767441e+02 1.76744186e+02 1.72093018e+02 1.88372086e+02
      1.70930237e+02 200. 1.69767441e+02 8.83720932e+01 8.25581360e+01
      1.04651161e+02 7.44186020e+01 1.22093018e+02 7.44186020e+01
      1.34883713e+02 8.83720932e+01 1.19767441e+02 8.95348816e+01
      1.02325577e+02 8.83720932e+01 2.08139526e+02 9.30232544e+01
      2.23255814e+02 8.37209320e+01 2.39534882e+02 8.48837204e+01
      2.51162781e+02 9.53488388e+01 2.40697678e+02 9.88372040e+01
      2.24418594e+02 9.76744156e+01 1.27906975e+02 2.19767441e+02
      1.46511627e+02 2.02325577e+02 1.66279068e+02 1.94186050e+02
      1.76744186e+02 1.98837204e+02 1.89534882e+02 1.95348831e+02
      2.04651154e+02 2.06976746e+02 2.15116272e+02 2.25581390e+02
      2.02325577e+02 2.32558136e+02 1.88372086e+02 2.34883713e+02
      1.74418594e+02 2.34883713e+02 1.61627899e+02 2.33720932e+02
      1.44186050e+02 2.29069763e+02 1.36046509e+02 2.18604645e+02
      1.65116272e+02 2.13953491e+02 1.75581390e+02 2.15116272e+02
      1.89534882e+02 2.15116272e+02 2.08139526e+02 2.22093018e+02
      1.88372086e+02 2.15116272e+02 1.75581390e+02 2.15116272e+02
      1.63953491e+02 2.13953491e+02</_>
    <_>
      2.44186039e+01 1.04651161e+02 2.67441864e+01 1.31395340e+02
      3.13953476e+01 1.58139526e+02 3.60465126e+01 1.88372086e+02
      4.53488350e+01 2.18604645e+02 6.27906952e+01 2.44186035e+02
      8.72092972e+01 2.63953491e+02 1.15116280e+02 2.81395355e+02 150.
      2.86046509e+02 1.83720932e+02 2.80232544e+02 2.10465118e+02
      2.62790680e+02 2.32558136e+02 2.43023254e+02 2.48837204e+02
      2.17441864e+02 2.56976746e+02 1.89534882e+02 2.61627899e+02
      1.60465118e+02 2.63953491e+02 1.30232559e+02 2.63953491e+02
      1.01162788e+02 4.53488350e+01 6.62790680e+01 5.93023262e+01 50.
      8.02325592e+01 4.65116272e+01 1.01162788e+02 50. 1.22093018e+02
      5.81395340e+01 1.59302322e+02 5.58139534e+01 1.80232559e+02
      4.65116272e+01 2.03488373e+02 4.30232544e+01 2.25581390e+02 50.
      2.38372086e+02 6.97674408e+01 1.43023254e+02 8.25581360e+01
      1.43023254e+02 100. 1.44186050e+02 1.16279068e+02 1.44186050e+02
      1.33720932e+02 1.20930229e+02 1.61627899e+02 1.31395340e+02
      1.62790695e+02 1.43023254e+02 1.63953491e+02 1.54651154e+02
      1.61627899e+02 1.66279068e+02 1.60465118e+02 6.62790680e+01
      9.18604660e+01 7.90697632e+01 8.25581360e+01 9.41860428e+01
      8.13953476e+01 1.06976746e+02 9.18604660e+01 9.41860428e+01
      9.41860428e+01 7.90697632e+01 9.53488388e+01 1.79069763e+02
      9.18604660e+01 1.93023254e+02 8.25581360e+01 2.08139526e+02
      8.25581360e+01 2.19767441e+02 9.18604660e+01 2.09302322e+02
      9.53488388e+01 1.93023254e+02 9.53488388e+01 1.05813950e+02
      2.09302322e+02 1.18604652e+02 1.94186050e+02 1.31395340e+02
      1.84883713e+02 1.44186050e+02 1.88372086e+02 1.54651154e+02
      1.83720932e+02 1.70930237e+02 1.93023254e+02 1.86046509e+02
      2.08139526e+02 1.72093018e+02 2.16279068e+02 1.58139526e+02
      2.20930222e+02 1.45348831e+02 2.22093018e+02 1.32558136e+02
      2.20930222e+02 1.17441856e+02 2.18604645e+02 1.12790695e+02
      2.08139526e+02 1.31395340e+02 2.01162781e+02 1.44186050e+02
      2.01162781e+02 1.55813950e+02 200. 1.79069763e+02 2.05813950e+02
      1.56976746e+02 2.03488373e+02 1.44186050e+02 2.04651154e+02
      1.32558136e+02 2.03488373e+02</_>
    <_>
      5.58139610e+00 9.48837280e+01 8.37209320e+00 1.26976746e+02
      1.53488379e+01 1.59069778e+02 2.23255825e+01 1.92558151e+02
      3.20930252e+01 2.28837219e+02 5.16279106e+01 2.56744202e+02
      7.95348892e+01 2.79069763e+02 1.11627914e+02 2.98604675e+02
      1.50697678e+02 3.02790710e+02 1.91162796e+02 2.97209320e+02
      2.21860474e+02 2.80465118e+02 2.46976761e+02 2.58139557e+02
      2.66511627e+02 2.28837219e+02 2.76279083e+02 1.96744186e+02
      2.81860474e+02 1.61860474e+02 2.84651184e+02 1.25581398e+02
      2.86046509e+02 9.06976776e+01 2.79069786e+01 4.74418640e+01
      4.60465126e+01 3.06976757e+01 6.97674408e+01 2.51162796e+01
      9.48837280e+01 2.93023262e+01 1.20000008e+02 3.76744194e+01
      1.63255814e+02 3.48837204e+01 1.88372101e+02 2.37209320e+01
      2.14883728e+02 1.95348854e+01 2.40000015e+02 2.79069786e+01
      2.56744202e+02 4.74418640e+01 1.42325592e+02 6.55813980e+01
      1.42325592e+02 8.51162796e+01 1.42325592e+02 1.06046516e+02
      1.43720932e+02 1.26976746e+02 1.15813957e+02 1.59069778e+02
      1.28372101e+02 1.60465118e+02 1.43720932e+02 1.61860474e+02
      1.57674423e+02 1.59069778e+02 1.71627914e+02 1.57674423e+02
      5.30232582e+01 7.95348892e+01 6.83720932e+01 6.83720932e+01
      8.79069824e+01 6.69767456e+01 1.03255821e+02 7.95348892e+01
      8.65116348e+01 8.37209320e+01 6.69767456e+01 8.51162796e+01
      1.84186050e+02 7.81395416e+01 2.00930237e+02 6.55813980e+01
      2.20465118e+02 6.55813980e+01 2.33023270e+02 7.53488388e+01
      2.20465118e+02 8.23255844e+01 2.02325592e+02 8.23255844e+01
      9.76744232e+01 2.14883728e+02 1.14418610e+02 1.96744186e+02
      1.31162796e+02 1.85581406e+02 1.45116287e+02 1.89767456e+02
      1.59069778e+02 1.84186050e+02 1.77209305e+02 1.93953491e+02
      1.95348846e+02 2.12093033e+02 1.78604660e+02 2.21860474e+02
      1.63255814e+02 2.27441864e+02 1.47906982e+02 2.28837219e+02
      1.32558151e+02 2.27441864e+02 1.14418610e+02 2.24651169e+02
      1.07441864e+02 2.12093033e+02 1.31162796e+02 2.06511642e+02
      1.45116287e+02 2.06511642e+02 1.60465118e+02 2.05116287e+02
      1.86976746e+02 2.09302338e+02 1.60465118e+02 2.05116287e+02
      1.46511627e+02 2.06511642e+02 1.31162796e+02 2.06511642e+02</_>
    <_>
      -2.09302330e+01 1.08139534e+02 -1.97674408e+01 1.46511627e+02
      -1.62790699e+01 1.84883713e+02 -8.13953495e+00 2.25581390e+02
      5.81395292e+00 2.65116272e+02 3.25581398e+01 2.96511627e+02
      6.86046524e+01 3.24418610e+02 1.08139534e+02 3.48837189e+02
      1.54651154e+02 3.55813934e+02 1.97674408e+02 3.51162781e+02
      2.31395340e+02 3.26744171e+02 2.59302307e+02 2.97674408e+02
      2.80232544e+02 2.61627899e+02 2.91860474e+02 2.22093018e+02
      2.98837219e+02 1.82558136e+02 3.01162781e+02 1.44186050e+02
      2.98837219e+02 1.04651161e+02 1.62790699e+01 5.34883728e+01
      3.83720932e+01 3.37209282e+01 6.86046524e+01 2.79069767e+01 100.
      3.25581398e+01 1.29069763e+02 4.41860466e+01 1.75581390e+02
      4.41860466e+01 2.03488373e+02 3.37209282e+01 2.34883713e+02
      3.02325573e+01 2.63953491e+02 3.95348816e+01 2.79069763e+02
      6.51162796e+01 1.53488373e+02 7.79069748e+01 1.55813950e+02
      1.01162788e+02 1.56976746e+02 1.24418602e+02 1.59302322e+02 150.
      1.16279068e+02 1.79069763e+02 1.36046509e+02 1.83720932e+02
      1.54651154e+02 1.88372086e+02 1.73255814e+02 1.84883713e+02
      1.90697678e+02 1.81395340e+02 4.76744194e+01 8.83720932e+01
      6.51162796e+01 7.79069748e+01 8.48837204e+01 7.79069748e+01
      1.04651161e+02 9.06976700e+01 8.37209320e+01 9.30232544e+01
      6.39534874e+01 9.18604660e+01 1.95348831e+02 9.30232544e+01
      2.13953491e+02 8.13953476e+01 2.34883713e+02 8.13953476e+01
      2.51162781e+02 9.18604660e+01 2.34883713e+02 9.65116272e+01
      2.15116272e+02 9.53488388e+01 7.44186020e+01 2.31395340e+02
      1.03488373e+02 2.19767441e+02 1.36046509e+02 2.12790695e+02
      1.54651154e+02 2.17441864e+02 1.74418594e+02 2.12790695e+02
      2.02325577e+02 2.20930222e+02 2.25581390e+02 2.36046509e+02
      2.03488373e+02 2.63953491e+02 1.76744186e+02 2.75581390e+02
      1.55813950e+02 2.76744171e+02 1.33720932e+02 2.74418610e+02
      1.02325577e+02 2.60465118e+02 8.25581360e+01 2.33720932e+02
      1.34883713e+02 2.30232559e+02 1.54651154e+02 2.32558136e+02
      1.74418594e+02 2.31395340e+02 2.17441864e+02 2.38372086e+02
      1.75581390e+02 2.53488373e+02 1.54651154e+02 2.54651154e+02
      1.33720932e+02 2.52325577e+02</_>
    <_>
      2.12903233e+01 1.15161293e+02 2.22580643e+01 1.46129044e+02
      2.61290321e+01 1.78064514e+02 3.19354839e+01 210. 4.35483894e+01
      2.42903229e+02 6.58064499e+01 2.69032257e+02 9.58064575e+01
      2.92258087e+02 1.29677429e+02 3.12580658e+02 1.67419357e+02
      3.18387115e+02 2.02258072e+02 3.12580658e+02 2.30322586e+02
      2.91290344e+02 2.54516144e+02 2.66129028e+02 2.72903229e+02
      2.37096786e+02 2.84516144e+02 2.05161301e+02 2.91290344e+02
      1.72258072e+02 2.93225830e+02 1.40322586e+02 2.90322601e+02
      1.09354843e+02 5.41935501e+01 6.38709679e+01 7.25806503e+01
      4.93548393e+01 9.77419357e+01 4.54838715e+01 1.22903229e+02
      4.93548393e+01 1.46129044e+02 5.90322609e+01 1.83870972e+02 60.
      2.07096786e+02 5.03225822e+01 2.31290329e+02 4.74193573e+01
      2.54516144e+02 5.32258072e+01 270. 6.96774216e+01 1.66451614e+02
      8.70967789e+01 1.68387100e+02 1.06451614e+02 1.70322586e+02
      1.25806458e+02 1.71290329e+02 1.46129044e+02 1.36451614e+02
      1.73225815e+02 1.52903229e+02 1.76129044e+02 1.68387100e+02
      1.79032257e+02 1.82903229e+02 1.76129044e+02 1.97419357e+02
      1.74193558e+02 7.83871002e+01 9.67741928e+01 9.29032288e+01
      8.90322571e+01 1.10322586e+02 8.90322571e+01 1.25806458e+02
      9.77419357e+01 1.10322586e+02 9.96774216e+01 9.38709717e+01
      9.96774216e+01 2.01290329e+02 9.96774216e+01 2.18709686e+02
      9.09677429e+01 2.35161301e+02 9.09677429e+01 2.48709686e+02
      9.96774216e+01 2.36129044e+02 1.02580650e+02 2.19677429e+02
      1.01612907e+02 1.00645164e+02 2.15806458e+02 1.25806458e+02
      2.05161301e+02 1.51935486e+02 1.99354843e+02 1.68387100e+02
      2.03225815e+02 1.84838715e+02 1.99354843e+02 2.09032257e+02
      2.07096786e+02 2.27419357e+02 2.18709686e+02 2.08064529e+02
      2.42903229e+02 1.84838715e+02 2.52580658e+02 1.67419357e+02
      2.54516144e+02 1.49032257e+02 2.51612915e+02 1.23870972e+02
      2.40967743e+02 1.08387100e+02 2.17741943e+02 1.51935486e+02
      2.14838715e+02 1.67419357e+02 2.15806458e+02 1.84838715e+02
      2.14838715e+02 2.19677429e+02 2.20645172e+02 1.83870972e+02
      2.33225815e+02 1.67419357e+02 2.34193558e+02 150. 2.33225815e+02</_>
    <_>
      2.12903233e+01 1.13225807e+02 2.32258072e+01 1.44193558e+02
      2.51612911e+01 1.76129044e+02 3.09677429e+01 2.09032257e+02
      4.35483894e+01 2.42903229e+02 6.58064499e+01 2.70967743e+02
      9.48387146e+01 2.94193542e+02 1.28709686e+02 3.13548401e+02
      1.66451614e+02 3.18387115e+02 2.02258072e+02 3.12580658e+02
      2.28387100e+02 2.92258087e+02 2.51612915e+02 2.66129028e+02
      2.68064514e+02 2.36129044e+02 2.78709686e+02 2.03225815e+02
      2.84516144e+02 1.70322586e+02 2.86451630e+02 1.38387100e+02
      2.85483887e+02 1.07419357e+02 5.41935501e+01 6.48387146e+01
      7.25806503e+01 5.03225822e+01 9.77419357e+01 4.64516144e+01
      1.22903229e+02 5.03225822e+01 1.45161301e+02 60. 1.83870972e+02
      5.90322609e+01 2.08064529e+02 4.93548393e+01 2.33225815e+02
      4.64516144e+01 2.55483871e+02 5.51612930e+01 2.67096771e+02
      7.54838715e+01 1.66451614e+02 8.80645218e+01 1.68387100e+02
      1.07419357e+02 1.69354843e+02 1.25806458e+02 1.71290329e+02
      1.46129044e+02 1.35483871e+02 1.72258072e+02 1.51935486e+02
      1.76129044e+02 1.67419357e+02 180. 1.82903229e+02 1.77096786e+02
      1.97419357e+02 1.74193558e+02 7.83871002e+01 9.77419357e+01
      9.29032288e+01 9.09677429e+01 1.10322586e+02 9.09677429e+01
      1.26774200e+02 9.87096786e+01 1.11290329e+02 1.00645164e+02
      9.38709717e+01 1.01612907e+02 2.01290329e+02 9.96774216e+01
      2.17741943e+02 9.19354858e+01 2.34193558e+02 9.19354858e+01
      2.47741943e+02 9.96774216e+01 2.35161301e+02 1.02580650e+02
      2.18709686e+02 1.02580650e+02 9.96774216e+01 2.15806458e+02
      1.24838715e+02 2.06129044e+02 1.51935486e+02 2.00322586e+02
      1.67419357e+02 2.05161301e+02 1.84838715e+02 2.00322586e+02
      2.07096786e+02 2.08064529e+02 2.25483871e+02 2.20645172e+02
      2.07096786e+02 2.42903229e+02 1.85806458e+02 2.52580658e+02
      1.66451614e+02 2.53548401e+02 1.49032257e+02 2.51612915e+02
      1.22903229e+02 2.40967743e+02 1.06451614e+02 2.17741943e+02
      1.50967743e+02 2.15806458e+02 1.66451614e+02 2.16774200e+02
      1.84838715e+02 2.15806458e+02 2.18709686e+02 2.21612915e+02
      1.84838715e+02 2.33225815e+02 1.66451614e+02 2.34193558e+02 150.
      2.33225815e+02</_>
    <_>
      2.03225803e+01 1.14193550e+02 2.22580643e+01 1.44193558e+02
      2.41935482e+01 1.76129044e+02 30. 2.08064529e+02 4.25806465e+01
      2.41935486e+02 6.38709679e+01 2.69032257e+02 9.29032288e+01
      2.92258087e+02 1.25806458e+02 3.12580658e+02 1.63548386e+02
      3.18387115e+02 1.99354843e+02 3.13548401e+02 2.26451614e+02
      2.93225830e+02 2.50645172e+02 2.68064514e+02 270. 2.39032272e+02
      2.82580658e+02 2.07096786e+02 2.89354858e+02 1.74193558e+02
      2.90322601e+02 1.43225815e+02 2.86451630e+02 1.12258064e+02
      5.61290321e+01 6.77419357e+01 7.54838715e+01 5.32258072e+01
      9.96774216e+01 4.93548393e+01 1.24838715e+02 5.32258072e+01
      1.48064514e+02 6.38709679e+01 1.85806458e+02 6.29032288e+01
      2.09032257e+02 5.32258072e+01 2.32258072e+02 5.03225822e+01
      2.54516144e+02 5.61290321e+01 2.67096771e+02 7.45161285e+01
      1.68387100e+02 9.29032288e+01 1.70322586e+02 1.12258064e+02
      1.71290329e+02 1.30645172e+02 1.72258072e+02 150. 1.38387100e+02
      1.76129044e+02 1.53870972e+02 1.79032257e+02 1.68387100e+02
      1.82903229e+02 1.82903229e+02 1.80967743e+02 1.97419357e+02
      1.78064514e+02 8.03225861e+01 9.96774216e+01 9.58064575e+01
      9.29032288e+01 1.13225807e+02 9.29032288e+01 1.27741936e+02
      1.01612907e+02 1.13225807e+02 1.04516129e+02 9.48387146e+01
      1.04516129e+02 2.02258072e+02 1.05483871e+02 2.18709686e+02
      9.58064575e+01 2.35161301e+02 9.58064575e+01 2.47741943e+02
      1.04516129e+02 2.36129044e+02 1.07419357e+02 2.19677429e+02
      1.07419357e+02 1.02580650e+02 2.18709686e+02 1.26774200e+02 210.
      1.52903229e+02 2.04193558e+02 1.68387100e+02 2.08064529e+02
      1.85806458e+02 2.04193558e+02 2.08064529e+02 2.10967743e+02
      2.25483871e+02 2.21612915e+02 2.07096786e+02 2.43870972e+02
      1.86774200e+02 2.54516144e+02 1.68387100e+02 2.56451630e+02 150.
      2.54516144e+02 1.25806458e+02 2.42903229e+02 1.08387100e+02
      2.20645172e+02 1.51935486e+02 2.16774200e+02 1.68387100e+02
      2.18709686e+02 1.85806458e+02 2.17741943e+02 2.18709686e+02
      2.23548401e+02 1.85806458e+02 2.36129044e+02 1.68387100e+02
      2.38064529e+02 1.50967743e+02 2.36129044e+02</_>
    <_>
      1.94174767e+01 7.66990280e+01 1.94174767e+01 1.09708740e+02
      2.13592243e+01 1.43689331e+02 2.52427197e+01 1.76699036e+02
      3.68932037e+01 2.08737869e+02 5.82524300e+01 2.35922333e+02
      8.54368973e+01 2.60194183e+02 1.16504860e+02 2.82524292e+02
      1.53398056e+02 2.89320404e+02 1.88349518e+02 2.85436890e+02
      2.13592239e+02 2.65048553e+02 2.34951462e+02 2.41747574e+02
      2.53398071e+02 2.12621368e+02 2.65048553e+02 1.81553406e+02
      2.72815552e+02 1.50485443e+02 2.75728149e+02 1.19417480e+02
      2.73786407e+02 8.93203888e+01 5.72815552e+01 3.88349533e+01
      7.76699066e+01 2.52427197e+01 1.02912621e+02 2.42718449e+01
      1.27184471e+02 3.00970879e+01 1.48543686e+02 4.27184486e+01
      1.87378647e+02 4.46601944e+01 2.07766998e+02 3.59223328e+01
      2.29126221e+02 3.30097084e+01 2.50485443e+02 3.88349533e+01
      2.62135925e+02 5.63106804e+01 1.66990295e+02 7.28155365e+01
      1.66990295e+02 9.22330093e+01 1.67961166e+02 1.09708740e+02
      1.68932037e+02 1.30097092e+02 1.34951462e+02 1.51456314e+02
      1.49514572e+02 1.55339813e+02 1.64077667e+02 1.60194183e+02
      1.78640778e+02 1.58252426e+02 1.92233017e+02 1.55339813e+02
      8.15533981e+01 7.18446655e+01 9.61165085e+01 6.50485458e+01
      1.12621361e+02 6.69902954e+01 1.26213593e+02 7.76699066e+01
      1.11650490e+02 7.76699066e+01 9.51456375e+01 7.66990280e+01
      1.99029129e+02 8.25242767e+01 2.13592239e+02 7.47572861e+01
      2.30097092e+02 7.57281570e+01 2.41747574e+02 8.44660187e+01
      2.30097092e+02 8.73786469e+01 2.14563110e+02 8.64077682e+01
      9.61165085e+01 1.86407776e+02 1.23300972e+02 1.80582535e+02
      1.49514572e+02 1.78640778e+02 1.64077667e+02 1.82524277e+02
      1.79611649e+02 1.80582535e+02 200. 1.86407776e+02 2.17475739e+02
      1.96116516e+02 1.97087387e+02 2.19417480e+02 1.76699036e+02
      2.29126221e+02 1.60194183e+02 2.29126221e+02 1.43689331e+02
      2.26213593e+02 1.18446602e+02 2.13592239e+02 1.03883499e+02
      1.89320389e+02 1.47572815e+02 1.91262146e+02 1.63106796e+02
      1.93203888e+02 1.78640778e+02 1.94174759e+02 2.09708740e+02
      1.98058258e+02 1.76699036e+02 2.10679611e+02 1.61165054e+02
      2.11650497e+02 1.44660202e+02 2.08737869e+02</_>
    <_>
      -1.16279101e+00 100. -4.65116310e+00 1.33720932e+02
      -4.65116310e+00 1.69767441e+02 -1.16279101e+00 2.06976746e+02
      1.04651175e+01 2.41860458e+02 3.25581398e+01 2.72093018e+02
      6.04651146e+01 2.96511627e+02 9.06976700e+01 3.18604645e+02
      1.25581390e+02 3.27906982e+02 1.59302322e+02 3.26744171e+02
      1.86046509e+02 3.09302307e+02 2.09302322e+02 2.84883728e+02
      2.27906967e+02 2.55813950e+02 2.40697678e+02 2.24418594e+02 250.
      1.91860458e+02 2.55813950e+02 1.59302322e+02 2.55813950e+02
      1.27906975e+02 4.30232544e+01 6.04651146e+01 6.62790680e+01
      5.23255806e+01 9.06976700e+01 5.46511612e+01 1.13953484e+02
      6.27906952e+01 1.34883713e+02 7.44186020e+01 1.77906967e+02
      8.02325592e+01 1.97674408e+02 7.44186020e+01 2.19767441e+02
      7.20930252e+01 2.39534882e+02 7.79069748e+01 250. 9.65116272e+01
      1.52325577e+02 1.08139534e+02 1.52325577e+02 1.29069763e+02
      1.52325577e+02 1.48837204e+02 1.52325577e+02 1.69767441e+02
      1.15116280e+02 1.87209305e+02 1.30232559e+02 1.91860458e+02
      1.44186050e+02 1.97674408e+02 1.58139526e+02 1.96511627e+02
      1.73255814e+02 1.95348831e+02 6.62790680e+01 100. 8.13953476e+01
      9.53488388e+01 9.88372040e+01 9.65116272e+01 1.12790695e+02
      1.08139534e+02 9.65116272e+01 1.08139534e+02 7.90697632e+01
      1.05813950e+02 1.82558136e+02 1.18604652e+02 1.97674408e+02
      1.11627907e+02 2.15116272e+02 1.12790695e+02 2.27906967e+02
      1.22093018e+02 2.13953491e+02 1.24418602e+02 1.97674408e+02
      1.22093018e+02 7.32558136e+01 2.20930222e+02 9.88372040e+01
      2.15116272e+02 1.24418602e+02 2.12790695e+02 1.40697678e+02
      2.19767441e+02 1.55813950e+02 2.17441864e+02 1.79069763e+02
      2.25581390e+02 1.95348831e+02 2.37209305e+02 1.75581390e+02
      2.60465118e+02 1.53488373e+02 2.69767426e+02 1.36046509e+02
      2.68604645e+02 1.17441856e+02 2.63953491e+02 9.41860428e+01
      2.48837204e+02 8.02325592e+01 2.23255814e+02 1.23255814e+02
      2.26744186e+02 1.39534882e+02 2.30232559e+02 1.54651154e+02
      2.31395340e+02 1.88372086e+02 2.38372086e+02 1.53488373e+02 250.
      1.37209305e+02 250. 1.19767441e+02 2.45348831e+02</_>
    <_>
      1.62790699e+01 7.67441864e+01 1.62790699e+01 1.08139534e+02
      1.86046505e+01 1.41860458e+02 2.32558136e+01 1.75581390e+02
      3.37209282e+01 2.06976746e+02 5.46511612e+01 2.36046509e+02
      8.13953476e+01 2.61627899e+02 1.12790695e+02 2.82558136e+02
      1.47674423e+02 2.90697662e+02 1.81395340e+02 2.88372101e+02
      2.09302322e+02 2.69767426e+02 2.33720932e+02 2.45348831e+02
      2.52325577e+02 2.17441864e+02 2.63953491e+02 1.86046509e+02
      2.72093018e+02 1.53488373e+02 2.76744171e+02 1.22093018e+02
      2.79069763e+02 9.06976700e+01 4.76744194e+01 3.37209282e+01
      6.86046524e+01 2.20930233e+01 9.30232544e+01 2.09302330e+01
      1.16279068e+02 2.67441864e+01 1.38372086e+02 3.72093010e+01
      1.82558136e+02 3.95348816e+01 2.05813950e+02 3.13953476e+01
      2.29069763e+02 2.90697670e+01 2.51162781e+02 3.72093010e+01
      2.65116272e+02 5.58139534e+01 1.59302322e+02 6.86046524e+01
      1.59302322e+02 8.95348816e+01 1.58139526e+02 1.09302322e+02
      1.58139526e+02 1.30232559e+02 1.24418602e+02 150. 1.38372086e+02
      1.54651154e+02 1.53488373e+02 1.58139526e+02 1.68604645e+02
      1.55813950e+02 1.83720932e+02 1.54651154e+02 7.32558136e+01
      6.86046524e+01 8.83720932e+01 6.27906952e+01 1.05813950e+02
      6.39534874e+01 1.19767441e+02 7.55813904e+01 1.03488373e+02
      7.67441864e+01 8.60465088e+01 7.44186020e+01 1.95348831e+02
      8.13953476e+01 2.10465118e+02 7.20930252e+01 2.27906967e+02
      7.20930252e+01 2.40697678e+02 8.02325592e+01 2.27906967e+02
      8.48837204e+01 2.11627899e+02 8.37209320e+01 8.95348816e+01
      1.84883713e+02 1.12790695e+02 1.80232559e+02 1.37209305e+02
      1.76744186e+02 1.54651154e+02 1.82558136e+02 1.72093018e+02
      1.79069763e+02 1.94186050e+02 1.86046509e+02 2.13953491e+02
      1.96511627e+02 1.93023254e+02 2.19767441e+02 1.70930237e+02
      2.29069763e+02 1.52325577e+02 2.30232559e+02 1.32558136e+02
      2.26744186e+02 1.09302322e+02 2.13953491e+02 9.53488388e+01
      1.88372086e+02 1.36046509e+02 1.89534882e+02 1.53488373e+02
      1.91860458e+02 1.70930237e+02 1.91860458e+02 2.05813950e+02
      1.97674408e+02 1.70930237e+02 2.11627899e+02 1.53488373e+02
      2.11627899e+02 1.34883713e+02 2.09302322e+02</_>
    <_>
      1.27906971e+01 1.08139534e+02 1.51162786e+01 1.38372086e+02
      1.74418602e+01 1.72093018e+02 2.20930233e+01 2.06976746e+02
      3.37209282e+01 2.41860458e+02 5.69767418e+01 2.70930237e+02
      8.37209320e+01 2.96511627e+02 1.15116280e+02 3.17441864e+02
      1.51162781e+02 3.25581390e+02 1.87209305e+02 3.22093018e+02
      2.15116272e+02 3.02325562e+02 2.38372086e+02 2.76744171e+02
      2.59302307e+02 2.47674408e+02 2.70930237e+02 2.15116272e+02
      2.77906982e+02 1.81395340e+02 2.83720917e+02 1.47674423e+02
      2.83720917e+02 1.13953484e+02 4.41860466e+01 6.39534874e+01
      6.27906952e+01 5.23255806e+01 8.48837204e+01 50. 1.08139534e+02
      5.46511612e+01 1.31395340e+02 6.39534874e+01 1.79069763e+02
      6.39534874e+01 2.01162781e+02 5.58139534e+01 2.25581390e+02
      5.34883728e+01 2.48837204e+02 6.04651146e+01 2.61627899e+02
      8.13953476e+01 1.53488373e+02 9.53488388e+01 1.54651154e+02
      1.16279068e+02 1.54651154e+02 1.37209305e+02 1.54651154e+02
      1.59302322e+02 1.22093018e+02 1.80232559e+02 1.37209305e+02
      1.83720932e+02 1.52325577e+02 1.88372086e+02 1.67441864e+02
      1.84883713e+02 1.82558136e+02 1.82558136e+02 6.86046524e+01
      9.88372040e+01 8.37209320e+01 9.18604660e+01 100. 9.30232544e+01
      1.13953484e+02 1.03488373e+02 9.88372040e+01 1.03488373e+02
      8.13953476e+01 1.02325577e+02 1.91860458e+02 1.05813950e+02
      2.08139526e+02 9.76744156e+01 2.25581390e+02 9.76744156e+01
      2.39534882e+02 1.05813950e+02 2.25581390e+02 1.09302322e+02
      2.09302322e+02 1.08139534e+02 8.72092972e+01 2.17441864e+02
      1.09302322e+02 2.11627899e+02 1.34883713e+02 2.06976746e+02
      1.53488373e+02 2.11627899e+02 1.69767441e+02 2.08139526e+02
      1.95348831e+02 2.15116272e+02 2.16279068e+02 2.24418594e+02
      1.95348831e+02 2.48837204e+02 1.70930237e+02 2.59302307e+02
      1.52325577e+02 2.59302307e+02 1.32558136e+02 2.56976746e+02
      1.08139534e+02 2.44186035e+02 9.30232544e+01 2.19767441e+02
      1.34883713e+02 2.19767441e+02 1.53488373e+02 2.22093018e+02
      1.70930237e+02 2.20930222e+02 2.09302322e+02 2.25581390e+02
      1.69767441e+02 2.41860458e+02 1.52325577e+02 2.43023254e+02
      1.33720932e+02 2.39534882e+02</_>
    <_>
      6.77419376e+00 1.21935486e+02 3.87096810e+00 1.54838715e+02
      4.83870983e+00 1.88709686e+02 9.67741966e+00 2.22580658e+02
      2.22580643e+01 2.55483871e+02 4.64516144e+01 2.85483887e+02
      7.64516144e+01 3.10645172e+02 1.08387100e+02 3.31935486e+02
      1.45161301e+02 3.40645172e+02 1.76129044e+02 3.37741943e+02
      2.00322586e+02 3.17419373e+02 2.20645172e+02 2.91290344e+02
      2.38064529e+02 2.62258087e+02 2.49677429e+02 2.32258072e+02
      2.58387115e+02 2.02258072e+02 2.61290344e+02 1.73225815e+02
      2.59354858e+02 1.45161301e+02 5.70967751e+01 7.64516144e+01
      7.83871002e+01 6.67741928e+01 1.03548393e+02 6.58064499e+01
      1.28709686e+02 7.35483856e+01 1.50967743e+02 8.61290359e+01
      1.87741943e+02 9.19354858e+01 2.09032257e+02 8.51612930e+01
      2.31290329e+02 8.41935501e+01 2.50645172e+02 9.29032288e+01
      2.57419373e+02 1.13225807e+02 1.67419357e+02 120. 1.69354843e+02
      1.38387100e+02 1.71290329e+02 1.55806458e+02 1.73225815e+02
      1.75161301e+02 1.31612900e+02 1.95483871e+02 1.48064514e+02
      2.00322586e+02 1.62580643e+02 2.06129044e+02 1.77096786e+02
      2.04193558e+02 1.89677429e+02 2.02258072e+02 8.03225861e+01
      1.12258064e+02 9.58064575e+01 1.07419357e+02 1.12258064e+02
      1.08387100e+02 1.24838715e+02 120. 1.10322586e+02 1.19032265e+02
      9.48387146e+01 1.17096779e+02 1.93548386e+02 1.29677429e+02
      2.09032257e+02 1.22903229e+02 2.24516129e+02 1.24838715e+02
      2.35161301e+02 1.34516129e+02 2.23548401e+02 1.35483871e+02
      2.09032257e+02 1.33548386e+02 8.90322571e+01 2.30322586e+02
      1.17096779e+02 2.24516129e+02 1.45161301e+02 2.22580658e+02
      1.59677429e+02 2.28387100e+02 1.75161301e+02 2.26451614e+02
      1.94516129e+02 2.33225815e+02 2.08064529e+02 2.46774200e+02
      1.90645172e+02 2.70967743e+02 1.72258072e+02 2.80645172e+02
      1.54838715e+02 2.79677429e+02 1.37419357e+02 2.74838715e+02
      1.12258064e+02 2.60322601e+02 9.67741928e+01 2.34193558e+02
      1.43225815e+02 2.35161301e+02 1.58709686e+02 2.38064529e+02
      1.74193558e+02 240. 2.01290329e+02 2.47741943e+02 1.73225815e+02
      2.62258087e+02 1.56774200e+02 2.61290344e+02 1.40322586e+02
      2.57419373e+02</_>
    <_>
      4.06976738e+01 1.34883713e+02 4.18604660e+01 1.62790695e+02
      4.53488350e+01 1.93023254e+02 5.23255806e+01 2.23255814e+02
      6.51162796e+01 2.54651154e+02 8.25581360e+01 2.81395355e+02
      1.03488373e+02 3.08139526e+02 1.26744186e+02 3.29069763e+02
      1.58139526e+02 3.34883728e+02 1.91860458e+02 3.30232544e+02
      2.20930222e+02 3.11627899e+02 2.48837204e+02 2.86046509e+02
      2.68604645e+02 2.54651154e+02 2.81395355e+02 2.20930222e+02
      2.89534882e+02 1.86046509e+02 2.94186035e+02 1.47674423e+02
      2.90697662e+02 1.10465111e+02 4.76744194e+01 7.79069748e+01
      5.81395340e+01 6.62790680e+01 7.32558136e+01 6.27906952e+01
      9.06976700e+01 6.39534874e+01 1.08139534e+02 6.97674408e+01 150.
      6.62790680e+01 1.73255814e+02 5.34883728e+01 200. 50.
      2.26744186e+02 5.69767418e+01 2.46511627e+02 7.55813904e+01
      1.29069763e+02 9.53488388e+01 1.27906975e+02 1.15116280e+02
      1.26744186e+02 1.33720932e+02 1.25581390e+02 1.54651154e+02
      1.09302322e+02 1.79069763e+02 1.19767441e+02 1.81395340e+02
      1.32558136e+02 1.83720932e+02 1.46511627e+02 1.79069763e+02
      1.62790695e+02 1.74418594e+02 6.51162796e+01 1.11627907e+02
      7.55813904e+01 1.01162788e+02 9.18604660e+01 9.88372040e+01
      1.06976746e+02 1.08139534e+02 9.18604660e+01 1.12790695e+02
      7.55813904e+01 1.13953484e+02 1.74418594e+02 1.02325577e+02
      1.90697678e+02 9.18604660e+01 2.08139526e+02 9.06976700e+01
      2.23255814e+02 9.88372040e+01 2.09302322e+02 1.03488373e+02
      1.91860458e+02 1.04651161e+02 9.65116272e+01 2.34883713e+02
      1.04651161e+02 2.13953491e+02 1.22093018e+02 2.03488373e+02
      1.38372086e+02 2.04651154e+02 1.54651154e+02 2.01162781e+02
      1.82558136e+02 2.09302322e+02 2.05813950e+02 2.29069763e+02
      1.87209305e+02 2.61627899e+02 1.63953491e+02 2.76744171e+02
      1.45348831e+02 2.79069763e+02 1.26744186e+02 2.76744171e+02
      1.06976746e+02 2.63953491e+02 1.02325577e+02 2.34883713e+02
      1.24418602e+02 2.16279068e+02 1.39534882e+02 2.15116272e+02
      1.56976746e+02 2.13953491e+02 1.97674408e+02 2.30232559e+02
      1.60465118e+02 2.56976746e+02 1.43023254e+02 2.58139526e+02
      1.25581390e+02 2.55813950e+02</_>
    <_>
      6.86046524e+01 1.38372086e+02 6.86046524e+01 1.62790695e+02
      7.09302292e+01 1.91860458e+02 7.90697632e+01 2.23255814e+02
      9.18604660e+01 2.53488373e+02 1.10465111e+02 2.80232544e+02
      1.33720932e+02 3.04651154e+02 1.58139526e+02 3.26744171e+02
      1.89534882e+02 3.31395355e+02 2.23255814e+02 3.26744171e+02
      2.52325577e+02 3.09302307e+02 2.79069763e+02 2.84883728e+02
      2.97674408e+02 2.53488373e+02 3.09302307e+02 2.18604645e+02
      3.13953491e+02 1.81395340e+02 3.13953491e+02 1.46511627e+02
      3.12790680e+02 1.11627907e+02 7.67441864e+01 9.30232544e+01
      8.60465088e+01 7.90697632e+01 1.02325577e+02 7.32558136e+01
      1.20930229e+02 7.44186020e+01 1.37209305e+02 8.13953476e+01
      1.72093018e+02 7.55813904e+01 1.95348831e+02 6.27906952e+01
      2.22093018e+02 5.69767418e+01 2.48837204e+02 6.39534874e+01
      2.67441864e+02 8.37209320e+01 1.56976746e+02 1.04651161e+02
      1.56976746e+02 1.23255814e+02 1.54651154e+02 1.39534882e+02
      1.53488373e+02 1.56976746e+02 1.37209305e+02 1.82558136e+02
      1.48837204e+02 1.84883713e+02 1.61627899e+02 1.86046509e+02
      1.75581390e+02 1.81395340e+02 1.90697678e+02 1.77906967e+02
      9.53488388e+01 1.20930229e+02 1.04651161e+02 1.10465111e+02
      1.19767441e+02 1.08139534e+02 1.34883713e+02 1.17441856e+02
      1.22093018e+02 1.22093018e+02 1.06976746e+02 1.24418602e+02
      1.97674408e+02 1.09302322e+02 2.11627899e+02 9.76744156e+01
      2.29069763e+02 9.65116272e+01 2.44186035e+02 1.04651161e+02
      2.31395340e+02 1.09302322e+02 2.13953491e+02 1.11627907e+02
      1.30232559e+02 2.38372086e+02 1.34883713e+02 2.16279068e+02
      1.52325577e+02 2.06976746e+02 1.65116272e+02 2.08139526e+02
      1.82558136e+02 2.03488373e+02 2.09302322e+02 2.10465118e+02
      2.33720932e+02 2.27906967e+02 2.17441864e+02 2.61627899e+02
      1.94186050e+02 2.75581390e+02 1.75581390e+02 2.79069763e+02
      1.59302322e+02 2.76744171e+02 1.40697678e+02 2.63953491e+02
      1.34883713e+02 2.38372086e+02 1.53488373e+02 2.18604645e+02
      1.67441864e+02 2.17441864e+02 1.84883713e+02 2.16279068e+02
      2.26744186e+02 2.29069763e+02 1.89534882e+02 2.60465118e+02
      1.72093018e+02 2.61627899e+02 1.56976746e+02 2.59302307e+02</_>
    <_>
      -9.30232525e+00 1.24418602e+02 -5.81395292e+00 1.63953491e+02 0.
      2.05813950e+02 1.16279068e+01 2.43023254e+02 3.37209282e+01
      2.77906982e+02 6.27906952e+01 3.04651154e+02 100. 3.24418610e+02
      1.37209305e+02 3.37209290e+02 1.77906967e+02 3.39534882e+02
      2.12790695e+02 3.33720917e+02 2.39534882e+02 3.16279053e+02
      2.59302307e+02 2.89534882e+02 2.74418610e+02 2.55813950e+02
      2.82558136e+02 2.20930222e+02 2.87209290e+02 1.84883713e+02
      2.86046509e+02 150. 2.81395355e+02 1.17441856e+02 4.18604660e+01
      7.09302292e+01 6.16279068e+01 50. 9.06976700e+01 4.41860466e+01
      1.19767441e+02 4.76744194e+01 1.46511627e+02 5.81395340e+01
      1.93023254e+02 5.58139534e+01 2.16279068e+02 4.65116272e+01
      2.39534882e+02 4.41860466e+01 2.61627899e+02 5.34883728e+01
      2.70930237e+02 7.44186020e+01 1.70930237e+02 9.30232544e+01
      1.75581390e+02 1.13953484e+02 1.80232559e+02 1.34883713e+02
      1.86046509e+02 1.56976746e+02 1.44186050e+02 1.83720932e+02
      1.62790695e+02 1.86046509e+02 1.80232559e+02 1.88372086e+02
      1.95348831e+02 1.84883713e+02 2.10465118e+02 1.81395340e+02
      7.20930252e+01 100. 8.72092972e+01 8.72092972e+01 1.06976746e+02
      8.72092972e+01 1.24418602e+02 1.01162788e+02 1.08139534e+02
      1.02325577e+02 8.83720932e+01 1.03488373e+02 2.02325577e+02 100.
      2.17441864e+02 8.60465088e+01 2.36046509e+02 8.60465088e+01
      2.48837204e+02 9.88372040e+01 2.37209305e+02 1.02325577e+02
      2.20930222e+02 1.02325577e+02 1.20930229e+02 2.41860458e+02
      1.43023254e+02 2.17441864e+02 1.63953491e+02 2.06976746e+02
      1.81395340e+02 2.09302322e+02 1.98837204e+02 2.04651154e+02
      2.18604645e+02 2.13953491e+02 2.29069763e+02 2.33720932e+02
      2.19767441e+02 2.43023254e+02 2.02325577e+02 2.52325577e+02
      1.83720932e+02 2.54651154e+02 1.65116272e+02 2.53488373e+02
      1.43023254e+02 2.48837204e+02 1.31395340e+02 2.38372086e+02
      1.63953491e+02 2.22093018e+02 1.81395340e+02 2.20930222e+02 200.
      2.19767441e+02 2.22093018e+02 2.31395340e+02 2.01162781e+02
      2.33720932e+02 1.82558136e+02 2.36046509e+02 1.63953491e+02
      2.34883713e+02</_>
    <_>
      -9.30232525e+00 1.38372086e+02 -5.81395292e+00 1.79069763e+02
      1.16279101e+00 2.20930222e+02 1.27906971e+01 2.60465118e+02
      3.48837204e+01 2.93023254e+02 6.62790680e+01 3.19767426e+02
      1.03488373e+02 3.39534882e+02 1.40697678e+02 350. 1.80232559e+02
      3.52325562e+02 2.13953491e+02 3.48837189e+02 2.38372086e+02
      3.31395355e+02 2.54651154e+02 3.03488373e+02 2.67441864e+02
      2.69767426e+02 2.77906982e+02 2.33720932e+02 2.84883728e+02
      1.96511627e+02 2.82558136e+02 1.59302322e+02 2.76744171e+02
      1.24418602e+02 3.95348816e+01 8.25581360e+01 6.04651146e+01
      6.16279068e+01 8.95348816e+01 5.58139534e+01 1.19767441e+02
      6.04651146e+01 1.46511627e+02 7.09302292e+01 1.89534882e+02
      6.97674408e+01 2.13953491e+02 5.93023262e+01 2.38372086e+02
      5.46511612e+01 2.60465118e+02 6.27906952e+01 2.69767426e+02
      8.48837204e+01 1.69767441e+02 1.03488373e+02 1.75581390e+02
      1.26744186e+02 1.81395340e+02 150. 1.88372086e+02 1.73255814e+02
      1.41860458e+02 200. 1.62790695e+02 2.03488373e+02 1.82558136e+02
      2.05813950e+02 1.98837204e+02 2.01162781e+02 2.13953491e+02
      1.96511627e+02 6.97674408e+01 1.11627907e+02 8.60465088e+01
      1.02325577e+02 1.05813950e+02 1.01162788e+02 1.23255814e+02
      1.12790695e+02 1.06976746e+02 1.15116280e+02 8.60465088e+01
      1.15116280e+02 200. 1.11627907e+02 2.16279068e+02 100.
      2.34883713e+02 100. 2.48837204e+02 1.10465111e+02 2.36046509e+02
      1.13953484e+02 2.18604645e+02 1.13953484e+02 1.15116280e+02 250.
      1.40697678e+02 2.32558136e+02 1.65116272e+02 2.23255814e+02
      1.82558136e+02 2.26744186e+02 2.01162781e+02 2.20930222e+02
      2.19767441e+02 2.27906967e+02 2.30232559e+02 2.46511627e+02
      2.19767441e+02 2.56976746e+02 2.04651154e+02 2.65116272e+02
      1.84883713e+02 2.67441864e+02 1.66279068e+02 2.67441864e+02
      1.41860458e+02 2.62790680e+02 1.25581390e+02 2.48837204e+02
      1.63953491e+02 2.37209305e+02 1.82558136e+02 2.37209305e+02
      2.01162781e+02 2.36046509e+02 2.23255814e+02 2.45348831e+02
      2.02325577e+02 2.46511627e+02 1.83720932e+02 2.48837204e+02
      1.63953491e+02 2.48837204e+02</_>
    <_>
      -4.41860466e+01 1.01162788e+02 -3.95348816e+01 1.44186050e+02
      -3.37209282e+01 1.84883713e+02 -2.20930233e+01 2.23255814e+02
      -1.16279101e+00 2.59302307e+02 2.79069767e+01 2.87209290e+02
      6.27906952e+01 3.10465118e+02 1.01162788e+02 3.24418610e+02
      1.41860458e+02 3.27906982e+02 1.77906967e+02 3.22093018e+02
      2.02325577e+02 3.02325562e+02 2.20930222e+02 2.73255798e+02
      2.36046509e+02 2.37209305e+02 2.45348831e+02 2.02325577e+02
      2.51162781e+02 1.66279068e+02 2.51162781e+02 1.27906975e+02
      2.45348831e+02 9.30232544e+01 1.16279068e+01 5.11627884e+01
      3.37209282e+01 3.60465126e+01 6.04651146e+01 3.25581398e+01
      8.72092972e+01 3.72093010e+01 1.12790695e+02 4.65116272e+01
      1.66279068e+02 4.65116272e+01 1.87209305e+02 3.72093010e+01
      2.09302322e+02 3.13953476e+01 2.30232559e+02 3.60465126e+01
      2.41860458e+02 5.34883728e+01 1.41860458e+02 8.25581360e+01
      1.46511627e+02 1.06976746e+02 1.52325577e+02 1.30232559e+02
      1.56976746e+02 1.54651154e+02 1.11627907e+02 1.76744186e+02
      1.31395340e+02 1.80232559e+02 1.52325577e+02 1.84883713e+02
      1.68604645e+02 1.79069763e+02 1.83720932e+02 1.73255814e+02
      4.18604660e+01 8.60465088e+01 5.69767418e+01 7.79069748e+01
      7.67441864e+01 7.67441864e+01 9.18604660e+01 8.83720932e+01
      7.55813904e+01 9.06976700e+01 5.69767418e+01 9.06976700e+01
      1.76744186e+02 8.95348816e+01 1.91860458e+02 7.79069748e+01
      2.09302322e+02 7.67441864e+01 2.23255814e+02 8.72092972e+01
      2.10465118e+02 9.18604660e+01 1.93023254e+02 9.06976700e+01
      7.79069748e+01 2.26744186e+02 1.06976746e+02 2.11627899e+02
      1.33720932e+02 2.03488373e+02 1.52325577e+02 2.05813950e+02
      1.67441864e+02 200. 1.87209305e+02 2.04651154e+02 200.
      2.22093018e+02 1.87209305e+02 2.36046509e+02 1.70930237e+02
      2.45348831e+02 1.53488373e+02 2.48837204e+02 1.32558136e+02
      2.48837204e+02 1.05813950e+02 2.43023254e+02 8.60465088e+01
      2.25581390e+02 1.33720932e+02 2.15116272e+02 1.52325577e+02
      2.15116272e+02 1.68604645e+02 2.12790695e+02 1.93023254e+02
      2.20930222e+02 1.68604645e+02 2.27906967e+02 1.52325577e+02
      2.30232559e+02 1.32558136e+02 2.31395340e+02</_>
    <_>
      1.45631065e+01 1.09708740e+02 1.74757290e+01 1.44660202e+02
      2.23300972e+01 1.80582535e+02 3.20388374e+01 2.13592239e+02
      4.85436897e+01 2.44660202e+02 7.18446655e+01 2.70873779e+02
      9.90291290e+01 2.93203888e+02 1.31067963e+02 3.07766998e+02
      1.66990295e+02 3.10679626e+02 1.96116516e+02 3.03883514e+02
      2.16504868e+02 2.84466034e+02 2.31067963e+02 2.58252441e+02
      2.42718460e+02 2.28155350e+02 2.51456314e+02 1.98058258e+02
      2.59223297e+02 1.67961166e+02 2.60194183e+02 1.36893204e+02
      2.58252441e+02 1.07766991e+02 5.53398056e+01 7.76699066e+01
      7.57281570e+01 6.50485458e+01 1.00970879e+02 6.50485458e+01
      1.25242722e+02 7.08737869e+01 1.47572815e+02 8.05825272e+01
      1.87378647e+02 7.96116562e+01 2.07766998e+02 6.99029160e+01
      2.28155350e+02 6.40776749e+01 2.46601944e+02 6.69902954e+01
      2.54368942e+02 8.34951477e+01 1.67961166e+02 1.09708740e+02
      1.71844666e+02 1.33009720e+02 1.75728165e+02 1.54368942e+02
      1.79611649e+02 1.77669907e+02 1.38834961e+02 1.91262146e+02
      1.56310684e+02 1.94174759e+02 1.73786407e+02 1.98058258e+02
      1.89320389e+02 1.93203888e+02 2.02912628e+02 1.88349518e+02
      8.15533981e+01 1.08737869e+02 9.61165085e+01 100. 1.14563110e+02
      1.00970879e+02 1.27184471e+02 1.13592239e+02 1.13592239e+02
      1.16504860e+02 9.51456375e+01 1.16504860e+02 1.97087387e+02
      1.14563110e+02 2.11650497e+02 1.01941750e+02 2.28155350e+02 100.
      2.38834961e+02 1.09708740e+02 2.30097092e+02 1.17475731e+02
      2.13592239e+02 1.17475731e+02 1.16504860e+02 2.33980591e+02
      1.35922333e+02 2.18446609e+02 1.57281555e+02 2.11650497e+02
      1.73786407e+02 2.14563110e+02 1.89320389e+02 2.09708740e+02
      2.04854370e+02 2.15533981e+02 2.13592239e+02 2.30097092e+02
      2.04854370e+02 2.39805832e+02 1.91262146e+02 2.47572815e+02
      1.73786407e+02 2.51456314e+02 1.56310684e+02 2.51456314e+02
      1.34951462e+02 2.45631073e+02 1.24271851e+02 2.33009720e+02
      1.57281555e+02 2.25242722e+02 1.73786407e+02 2.25242722e+02
      1.89320389e+02 2.23300980e+02 2.06796127e+02 2.29126221e+02
      1.89320389e+02 2.30097092e+02 1.72815536e+02 2.33009720e+02
      1.56310684e+02 2.33009720e+02</_>
    <_>
      1.16279101e+00 6.97674408e+01 4.65116310e+00 1.11627907e+02
      1.16279068e+01 150. 2.09302330e+01 1.88372086e+02 3.48837204e+01
      2.24418594e+02 5.58139534e+01 2.55813950e+02 8.13953476e+01
      2.82558136e+02 1.12790695e+02 3.03488373e+02 1.51162781e+02
      3.10465118e+02 1.89534882e+02 3.08139526e+02 2.22093018e+02
      2.90697662e+02 2.48837204e+02 2.63953491e+02 2.72093018e+02
      2.31395340e+02 2.86046509e+02 1.94186050e+02 2.96511627e+02
      1.54651154e+02 3.01162781e+02 1.11627907e+02 3.01162781e+02
      6.97674408e+01 2.55813942e+01 4.06976738e+01 4.53488350e+01
      2.20930233e+01 7.32558136e+01 1.62790699e+01 1.01162788e+02
      2.20930233e+01 1.27906975e+02 3.13953476e+01 1.77906967e+02
      3.02325573e+01 2.05813950e+02 1.97674408e+01 2.36046509e+02
      1.39534883e+01 2.63953491e+02 2.09302330e+01 2.81395355e+02
      4.53488350e+01 1.51162781e+02 6.62790680e+01 1.53488373e+02
      9.53488388e+01 1.53488373e+02 1.22093018e+02 1.54651154e+02 150.
      1.18604652e+02 1.66279068e+02 1.36046509e+02 1.69767441e+02
      1.54651154e+02 1.74418594e+02 1.73255814e+02 1.69767441e+02
      1.91860458e+02 1.65116272e+02 5.46511612e+01 7.09302292e+01
      7.20930252e+01 5.93023262e+01 9.30232544e+01 6.04651146e+01
      1.10465111e+02 7.55813904e+01 9.18604660e+01 7.67441864e+01
      7.09302292e+01 7.55813904e+01 1.97674408e+02 7.44186020e+01
      2.15116272e+02 6.04651146e+01 2.36046509e+02 5.93023262e+01
      2.53488373e+02 6.86046524e+01 2.38372086e+02 7.55813904e+01
      2.17441864e+02 7.55813904e+01 9.65116272e+01 2.17441864e+02
      1.12790695e+02 200. 1.34883713e+02 1.90697678e+02 1.54651154e+02
      1.94186050e+02 1.73255814e+02 1.88372086e+02 1.94186050e+02
      1.95348831e+02 2.11627899e+02 2.16279068e+02 1.95348831e+02
      2.27906967e+02 1.75581390e+02 2.37209305e+02 1.54651154e+02
      2.40697678e+02 1.33720932e+02 2.38372086e+02 1.12790695e+02
      2.30232559e+02 1.04651161e+02 2.17441864e+02 1.34883713e+02
      2.05813950e+02 1.54651154e+02 2.05813950e+02 1.74418594e+02
